digraph Tree {
node [shape=box, style="filled, rounded", color="black", fontname=helvetica] ;
edge [fontname=helvetica] ;
0 [label="Income <= 98.5\nentropy = 0.456\nsamples = 4000\nvalue = [3616, 384]\nclass = y[0]", fillcolor="#e88e4e"] ;
1 [label="CCAvg <= 2.95\nentropy = 0.083\nsamples = 3005\nvalue = [2974, 31]\nclass = y[0]", fillcolor="#e5823b"] ;
0 -> 1 [labeldistance=2.5, labelangle=45, headlabel="True"] ;
2 [label="entropy = 0.0\nsamples = 2830\nvalue = [2830, 0]\nclass = y[0]", fillcolor="#e58139"] ;
1 -> 2 ;
3 [label="CD Account <= 0.5\nentropy = 0.674\nsamples = 175\nvalue = [144, 31]\nclass = y[0]", fillcolor="#eb9c64"] ;
1 -> 3 ;
4 [label="CCAvg <= 4.2\nentropy = 0.583\nsamples = 165\nvalue = [142, 23]\nclass = y[0]", fillcolor="#e99559"] ;
3 -> 4 ;
5 [label="entropy = 0.676\nsamples = 129\nvalue = [106, 23]\nclass = y[0]", fillcolor="#eb9c64"] ;
4 -> 5 ;
6 [label="entropy = 0.0\nsamples = 36\nvalue = [36, 0]\nclass = y[0]", fillcolor="#e58139"] ;
4 -> 6 ;
7 [label="CCAvg <= 4.3\nentropy = 0.722\nsamples = 10\nvalue = [2, 8]\nclass = y[1]", fillcolor="#6ab6ec"] ;
3 -> 7 ;
8 [label="entropy = 0.0\nsamples = 8\nvalue = [0, 8]\nclass = y[1]", fillcolor="#399de5"] ;
7 -> 8 ;
9 [label="entropy = 0.0\nsamples = 2\nvalue = [2, 0]\nclass = y[0]", fillcolor="#e58139"] ;
7 -> 9 ;
10 [label="Education <= 1.5\nentropy = 0.938\nsamples = 995\nvalue = [642, 353]\nclass = y[0]", fillcolor="#f3c6a6"] ;
0 -> 10 [labeldistance=2.5, labelangle=-45, headlabel="False"] ;
11 [label="Family <= 2.5\nentropy = 0.482\nsamples = 604\nvalue = [541, 63]\nclass = y[0]", fillcolor="#e89050"] ;
10 -> 11 ;
12 [label="Income <= 104.5\nentropy = 0.064\nsamples = 531\nvalue = [527, 4]\nclass = y[0]", fillcolor="#e5823b"] ;
11 -> 12 ;
13 [label="entropy = 0.544\nsamples = 32\nvalue = [28, 4]\nclass = y[0]", fillcolor="#e99355"] ;
12 -> 13 ;
14 [label="entropy = 0.0\nsamples = 499\nvalue = [499, 0]\nclass = y[0]", fillcolor="#e58139"] ;
12 -> 14 ;
15 [label="Income <= 113.5\nentropy = 0.705\nsamples = 73\nvalue = [14, 59]\nclass = y[1]", fillcolor="#68b4eb"] ;
11 -> 15 ;
16 [label="entropy = 0.881\nsamples = 20\nvalue = [14, 6]\nclass = y[0]", fillcolor="#f0b78e"] ;
15 -> 16 ;
17 [label="entropy = 0.0\nsamples = 53\nvalue = [0, 53]\nclass = y[1]", fillcolor="#399de5"] ;
15 -> 17 ;
18 [label="Income <= 116.5\nentropy = 0.824\nsamples = 391\nvalue = [101, 290]\nclass = y[1]", fillcolor="#7ebfee"] ;
10 -> 18 ;
19 [label="CCAvg <= 2.725\nentropy = 0.873\nsamples = 143\nvalue = [101, 42]\nclass = y[0]", fillcolor="#f0b58b"] ;
18 -> 19 ;
20 [label="entropy = 0.526\nsamples = 101\nvalue = [89, 12]\nclass = y[0]", fillcolor="#e99254"] ;
19 -> 20 ;
21 [label="entropy = 0.863\nsamples = 42\nvalue = [12, 30]\nclass = y[1]", fillcolor="#88c4ef"] ;
19 -> 21 ;
22 [label="entropy = 0.0\nsamples = 248\nvalue = [0, 248]\nclass = y[1]", fillcolor="#399de5"] ;
18 -> 22 ;
}