digraph Tree {
node [shape=box, style="filled, rounded", color="black", fontname=helvetica] ;
edge [fontname=helvetica] ;
0 [label="Income <= 113.5\ngini = 0.174\nsamples = 5000\nvalue = [4520, 480]\nclass = y[0]", fillcolor="#e88e4e"] ;
1 [label="Income <= 92.5\ngini = 0.041\nsamples = 4021\nvalue = [3937, 84]\nclass = y[0]", fillcolor="#e6843d"] ;
0 -> 1 [labeldistance=2.5, labelangle=45, headlabel="True"] ;
2 [label="Income <= 82.5\ngini = 0.014\nsamples = 3638\nvalue = [3613, 25]\nclass = y[0]", fillcolor="#e5823a"] ;
1 -> 2 ;
3 [label="Income <= 63.5\ngini = 0.005\nsamples = 3272\nvalue = [3263, 9]\nclass = y[0]", fillcolor="#e5813a"] ;
2 -> 3 ;
4 [label="Age <= 26.5\ngini = 0.001\nsamples = 2490\nvalue = [2489, 1]\nclass = y[0]", fillcolor="#e58139"] ;
3 -> 4 ;
5 [label="Income <= 59.5\ngini = 0.024\nsamples = 83\nvalue = [82, 1]\nclass = y[0]", fillcolor="#e5833b"] ;
4 -> 5 ;
6 [label="gini = 0.0\nsamples = 76\nvalue = [76, 0]\nclass = y[0]", fillcolor="#e58139"] ;
5 -> 6 ;
7 [label="Income <= 60.5\ngini = 0.245\nsamples = 7\nvalue = [6, 1]\nclass = y[0]", fillcolor="#e9965a"] ;
5 -> 7 ;
8 [label="Age <= 25.0\ngini = 0.444\nsamples = 3\nvalue = [2, 1]\nclass = y[0]", fillcolor="#f2c09c"] ;
7 -> 8 ;
9 [label="gini = 0.0\nsamples = 1\nvalue = [1, 0]\nclass = y[0]", fillcolor="#e58139"] ;
8 -> 9 ;
10 [label="gini = 0.5\nsamples = 2\nvalue = [1, 1]\nclass = y[0]", fillcolor="#ffffff"] ;
8 -> 10 ;
11 [label="gini = 0.0\nsamples = 4\nvalue = [4, 0]\nclass = y[0]", fillcolor="#e58139"] ;
7 -> 11 ;
12 [label="gini = 0.0\nsamples = 2407\nvalue = [2407, 0]\nclass = y[0]", fillcolor="#e58139"] ;
4 -> 12 ;
13 [label="Age <= 36.5\ngini = 0.02\nsamples = 782\nvalue = [774, 8]\nclass = y[0]", fillcolor="#e5823b"] ;
3 -> 13 ;
14 [label="Income <= 73.5\ngini = 0.046\nsamples = 212\nvalue = [207, 5]\nclass = y[0]", fillcolor="#e6843e"] ;
13 -> 14 ;
15 [label="Age <= 27.5\ngini = 0.078\nsamples = 98\nvalue = [94, 4]\nclass = y[0]", fillcolor="#e68641"] ;
14 -> 15 ;
16 [label="gini = 0.0\nsamples = 16\nvalue = [16, 0]\nclass = y[0]", fillcolor="#e58139"] ;
15 -> 16 ;
17 [label="Age <= 28.5\ngini = 0.093\nsamples = 82\nvalue = [78, 4]\nclass = y[0]", fillcolor="#e68743"] ;
15 -> 17 ;
18 [label="Income <= 70.5\ngini = 0.245\nsamples = 7\nvalue = [6, 1]\nclass = y[0]", fillcolor="#e9965a"] ;
17 -> 18 ;
19 [label="gini = 0.0\nsamples = 6\nvalue = [6, 0]\nclass = y[0]", fillcolor="#e58139"] ;
18 -> 19 ;
20 [label="gini = 0.0\nsamples = 1\nvalue = [0, 1]\nclass = y[1]", fillcolor="#399de5"] ;
18 -> 20 ;
21 [label="Income <= 72.5\ngini = 0.077\nsamples = 75\nvalue = [72, 3]\nclass = y[0]", fillcolor="#e68641"] ;
17 -> 21 ;
22 [label="Age <= 33.5\ngini = 0.061\nsamples = 64\nvalue = [62, 2]\nclass = y[0]", fillcolor="#e6853f"] ;
21 -> 22 ;
23 [label="gini = 0.0\nsamples = 35\nvalue = [35, 0]\nclass = y[0]", fillcolor="#e58139"] ;
22 -> 23 ;
24 [label="Income <= 69.5\ngini = 0.128\nsamples = 29\nvalue = [27, 2]\nclass = y[0]", fillcolor="#e78a48"] ;
22 -> 24 ;
25 [label="Income <= 68.5\ngini = 0.188\nsamples = 19\nvalue = [17, 2]\nclass = y[0]", fillcolor="#e89050"] ;
24 -> 25 ;
26 [label="Age <= 34.5\ngini = 0.124\nsamples = 15\nvalue = [14, 1]\nclass = y[0]", fillcolor="#e78a47"] ;
25 -> 26 ;
27 [label="Income <= 66.5\ngini = 0.278\nsamples = 6\nvalue = [5, 1]\nclass = y[0]", fillcolor="#ea9a61"] ;
26 -> 27 ;
28 [label="Income <= 64.5\ngini = 0.375\nsamples = 4\nvalue = [3, 1]\nclass = y[0]", fillcolor="#eeab7b"] ;
27 -> 28 ;
29 [label="gini = 0.0\nsamples = 1\nvalue = [1, 0]\nclass = y[0]", fillcolor="#e58139"] ;
28 -> 29 ;
30 [label="gini = 0.444\nsamples = 3\nvalue = [2, 1]\nclass = y[0]", fillcolor="#f2c09c"] ;
28 -> 30 ;
31 [label="gini = 0.0\nsamples = 2\nvalue = [2, 0]\nclass = y[0]", fillcolor="#e58139"] ;
27 -> 31 ;
32 [label="gini = 0.0\nsamples = 9\nvalue = [9, 0]\nclass = y[0]", fillcolor="#e58139"] ;
26 -> 32 ;
33 [label="Age <= 35.5\ngini = 0.375\nsamples = 4\nvalue = [3, 1]\nclass = y[0]", fillcolor="#eeab7b"] ;
25 -> 33 ;
34 [label="gini = 0.0\nsamples = 1\nvalue = [1, 0]\nclass = y[0]", fillcolor="#e58139"] ;
33 -> 34 ;
35 [label="gini = 0.444\nsamples = 3\nvalue = [2, 1]\nclass = y[0]", fillcolor="#f2c09c"] ;
33 -> 35 ;
36 [label="gini = 0.0\nsamples = 10\nvalue = [10, 0]\nclass = y[0]", fillcolor="#e58139"] ;
24 -> 36 ;
37 [label="Age <= 31.0\ngini = 0.165\nsamples = 11\nvalue = [10, 1]\nclass = y[0]", fillcolor="#e88e4d"] ;
21 -> 37 ;
38 [label="Age <= 29.5\ngini = 0.32\nsamples = 5\nvalue = [4, 1]\nclass = y[0]", fillcolor="#eca06a"] ;
37 -> 38 ;
39 [label="gini = 0.0\nsamples = 2\nvalue = [2, 0]\nclass = y[0]", fillcolor="#e58139"] ;
38 -> 39 ;
40 [label="gini = 0.444\nsamples = 3\nvalue = [2, 1]\nclass = y[0]", fillcolor="#f2c09c"] ;
38 -> 40 ;
41 [label="gini = 0.0\nsamples = 6\nvalue = [6, 0]\nclass = y[0]", fillcolor="#e58139"] ;
37 -> 41 ;
42 [label="Income <= 80.5\ngini = 0.017\nsamples = 114\nvalue = [113, 1]\nclass = y[0]", fillcolor="#e5823b"] ;
14 -> 42 ;
43 [label="gini = 0.0\nsamples = 67\nvalue = [67, 0]\nclass = y[0]", fillcolor="#e58139"] ;
42 -> 43 ;
44 [label="Income <= 81.5\ngini = 0.042\nsamples = 47\nvalue = [46, 1]\nclass = y[0]", fillcolor="#e6843d"] ;
42 -> 44 ;
45 [label="Age <= 31.5\ngini = 0.083\nsamples = 23\nvalue = [22, 1]\nclass = y[0]", fillcolor="#e68742"] ;
44 -> 45 ;
46 [label="gini = 0.0\nsamples = 12\nvalue = [12, 0]\nclass = y[0]", fillcolor="#e58139"] ;
45 -> 46 ;
47 [label="Age <= 32.5\ngini = 0.165\nsamples = 11\nvalue = [10, 1]\nclass = y[0]", fillcolor="#e88e4d"] ;
45 -> 47 ;
48 [label="gini = 0.444\nsamples = 3\nvalue = [2, 1]\nclass = y[0]", fillcolor="#f2c09c"] ;
47 -> 48 ;
49 [label="gini = 0.0\nsamples = 8\nvalue = [8, 0]\nclass = y[0]", fillcolor="#e58139"] ;
47 -> 49 ;
50 [label="gini = 0.0\nsamples = 24\nvalue = [24, 0]\nclass = y[0]", fillcolor="#e58139"] ;
44 -> 50 ;
51 [label="Income <= 81.5\ngini = 0.01\nsamples = 570\nvalue = [567, 3]\nclass = y[0]", fillcolor="#e5823a"] ;
13 -> 51 ;
52 [label="Income <= 64.5\ngini = 0.007\nsamples = 533\nvalue = [531, 2]\nclass = y[0]", fillcolor="#e5813a"] ;
51 -> 52 ;
53 [label="Age <= 44.5\ngini = 0.043\nsamples = 46\nvalue = [45, 1]\nclass = y[0]", fillcolor="#e6843d"] ;
52 -> 53 ;
54 [label="Age <= 42.5\ngini = 0.18\nsamples = 10\nvalue = [9, 1]\nclass = y[0]", fillcolor="#e88f4f"] ;
53 -> 54 ;
55 [label="gini = 0.0\nsamples = 9\nvalue = [9, 0]\nclass = y[0]", fillcolor="#e58139"] ;
54 -> 55 ;
56 [label="gini = 0.0\nsamples = 1\nvalue = [0, 1]\nclass = y[1]", fillcolor="#399de5"] ;
54 -> 56 ;
57 [label="gini = 0.0\nsamples = 36\nvalue = [36, 0]\nclass = y[0]", fillcolor="#e58139"] ;
53 -> 57 ;
58 [label="Age <= 44.5\ngini = 0.004\nsamples = 487\nvalue = [486, 1]\nclass = y[0]", fillcolor="#e58139"] ;
52 -> 58 ;
59 [label="Age <= 43.5\ngini = 0.012\nsamples = 165\nvalue = [164, 1]\nclass = y[0]", fillcolor="#e5823a"] ;
58 -> 59 ;
60 [label="gini = 0.0\nsamples = 137\nvalue = [137, 0]\nclass = y[0]", fillcolor="#e58139"] ;
59 -> 60 ;
61 [label="Income <= 74.5\ngini = 0.069\nsamples = 28\nvalue = [27, 1]\nclass = y[0]", fillcolor="#e68640"] ;
59 -> 61 ;
62 [label="gini = 0.0\nsamples = 21\nvalue = [21, 0]\nclass = y[0]", fillcolor="#e58139"] ;
61 -> 62 ;
63 [label="Income <= 76.5\ngini = 0.245\nsamples = 7\nvalue = [6, 1]\nclass = y[0]", fillcolor="#e9965a"] ;
61 -> 63 ;
64 [label="gini = 0.444\nsamples = 3\nvalue = [2, 1]\nclass = y[0]", fillcolor="#f2c09c"] ;
63 -> 64 ;
65 [label="gini = 0.0\nsamples = 4\nvalue = [4, 0]\nclass = y[0]", fillcolor="#e58139"] ;
63 -> 65 ;
66 [label="gini = 0.0\nsamples = 322\nvalue = [322, 0]\nclass = y[0]", fillcolor="#e58139"] ;
58 -> 66 ;
67 [label="Age <= 52.0\ngini = 0.053\nsamples = 37\nvalue = [36, 1]\nclass = y[0]", fillcolor="#e6843e"] ;
51 -> 67 ;
68 [label="gini = 0.0\nsamples = 27\nvalue = [27, 0]\nclass = y[0]", fillcolor="#e58139"] ;
67 -> 68 ;
69 [label="Age <= 54.5\ngini = 0.18\nsamples = 10\nvalue = [9, 1]\nclass = y[0]", fillcolor="#e88f4f"] ;
67 -> 69 ;
70 [label="gini = 0.5\nsamples = 2\nvalue = [1, 1]\nclass = y[0]", fillcolor="#ffffff"] ;
69 -> 70 ;
71 [label="gini = 0.0\nsamples = 8\nvalue = [8, 0]\nclass = y[0]", fillcolor="#e58139"] ;
69 -> 71 ;
72 [label="Age <= 46.5\ngini = 0.084\nsamples = 366\nvalue = [350, 16]\nclass = y[0]", fillcolor="#e68742"] ;
2 -> 72 ;
73 [label="Age <= 26.5\ngini = 0.039\nsamples = 199\nvalue = [195, 4]\nclass = y[0]", fillcolor="#e6843d"] ;
72 -> 73 ;
74 [label="Income <= 84.0\ngini = 0.18\nsamples = 10\nvalue = [9, 1]\nclass = y[0]", fillcolor="#e88f4f"] ;
73 -> 74 ;
75 [label="gini = 0.0\nsamples = 1\nvalue = [0, 1]\nclass = y[1]", fillcolor="#399de5"] ;
74 -> 75 ;
76 [label="gini = 0.0\nsamples = 9\nvalue = [9, 0]\nclass = y[0]", fillcolor="#e58139"] ;
74 -> 76 ;
77 [label="Income <= 88.5\ngini = 0.031\nsamples = 189\nvalue = [186, 3]\nclass = y[0]", fillcolor="#e5833c"] ;
73 -> 77 ;
78 [label="Age <= 42.5\ngini = 0.016\nsamples = 124\nvalue = [123, 1]\nclass = y[0]", fillcolor="#e5823b"] ;
77 -> 78 ;
79 [label="gini = 0.0\nsamples = 90\nvalue = [90, 0]\nclass = y[0]", fillcolor="#e58139"] ;
78 -> 79 ;
80 [label="Income <= 83.5\ngini = 0.057\nsamples = 34\nvalue = [33, 1]\nclass = y[0]", fillcolor="#e6853f"] ;
78 -> 80 ;
81 [label="Age <= 43.5\ngini = 0.165\nsamples = 11\nvalue = [10, 1]\nclass = y[0]", fillcolor="#e88e4d"] ;
80 -> 81 ;
82 [label="gini = 0.375\nsamples = 4\nvalue = [3, 1]\nclass = y[0]", fillcolor="#eeab7b"] ;
81 -> 82 ;
83 [label="gini = 0.0\nsamples = 7\nvalue = [7, 0]\nclass = y[0]", fillcolor="#e58139"] ;
81 -> 83 ;
84 [label="gini = 0.0\nsamples = 23\nvalue = [23, 0]\nclass = y[0]", fillcolor="#e58139"] ;
80 -> 84 ;
85 [label="Age <= 30.0\ngini = 0.06\nsamples = 65\nvalue = [63, 2]\nclass = y[0]", fillcolor="#e6853f"] ;
77 -> 85 ;
86 [label="Age <= 28.5\ngini = 0.245\nsamples = 7\nvalue = [6, 1]\nclass = y[0]", fillcolor="#e9965a"] ;
85 -> 86 ;
87 [label="gini = 0.0\nsamples = 4\nvalue = [4, 0]\nclass = y[0]", fillcolor="#e58139"] ;
86 -> 87 ;
88 [label="Income <= 91.5\ngini = 0.444\nsamples = 3\nvalue = [2, 1]\nclass = y[0]", fillcolor="#f2c09c"] ;
86 -> 88 ;
89 [label="gini = 0.0\nsamples = 1\nvalue = [0, 1]\nclass = y[1]", fillcolor="#399de5"] ;
88 -> 89 ;
90 [label="gini = 0.0\nsamples = 2\nvalue = [2, 0]\nclass = y[0]", fillcolor="#e58139"] ;
88 -> 90 ;
91 [label="Income <= 89.5\ngini = 0.034\nsamples = 58\nvalue = [57, 1]\nclass = y[0]", fillcolor="#e5833c"] ;
85 -> 91 ;
92 [label="Age <= 39.5\ngini = 0.091\nsamples = 21\nvalue = [20, 1]\nclass = y[0]", fillcolor="#e68743"] ;
91 -> 92 ;
93 [label="gini = 0.0\nsamples = 10\nvalue = [10, 0]\nclass = y[0]", fillcolor="#e58139"] ;
92 -> 93 ;
94 [label="Age <= 40.5\ngini = 0.165\nsamples = 11\nvalue = [10, 1]\nclass = y[0]", fillcolor="#e88e4d"] ;
92 -> 94 ;
95 [label="gini = 0.5\nsamples = 2\nvalue = [1, 1]\nclass = y[0]", fillcolor="#ffffff"] ;
94 -> 95 ;
96 [label="gini = 0.0\nsamples = 9\nvalue = [9, 0]\nclass = y[0]", fillcolor="#e58139"] ;
94 -> 96 ;
97 [label="gini = 0.0\nsamples = 37\nvalue = [37, 0]\nclass = y[0]", fillcolor="#e58139"] ;
91 -> 97 ;
98 [label="Income <= 83.5\ngini = 0.133\nsamples = 167\nvalue = [155, 12]\nclass = y[0]", fillcolor="#e78b48"] ;
72 -> 98 ;
99 [label="Age <= 47.5\ngini = 0.264\nsamples = 32\nvalue = [27, 5]\nclass = y[0]", fillcolor="#ea985e"] ;
98 -> 99 ;
100 [label="gini = 0.0\nsamples = 1\nvalue = [0, 1]\nclass = y[1]", fillcolor="#399de5"] ;
99 -> 100 ;
101 [label="Age <= 59.5\ngini = 0.225\nsamples = 31\nvalue = [27, 4]\nclass = y[0]", fillcolor="#e99456"] ;
99 -> 101 ;
102 [label="Age <= 57.5\ngini = 0.278\nsamples = 18\nvalue = [15, 3]\nclass = y[0]", fillcolor="#ea9a61"] ;
101 -> 102 ;
103 [label="Age <= 52.5\ngini = 0.219\nsamples = 16\nvalue = [14, 2]\nclass = y[0]", fillcolor="#e99355"] ;
102 -> 103 ;
104 [label="Age <= 51.0\ngini = 0.298\nsamples = 11\nvalue = [9, 2]\nclass = y[0]", fillcolor="#eb9d65"] ;
103 -> 104 ;
105 [label="Age <= 49.5\ngini = 0.198\nsamples = 9\nvalue = [8, 1]\nclass = y[0]", fillcolor="#e89152"] ;
104 -> 105 ;
106 [label="gini = 0.0\nsamples = 3\nvalue = [3, 0]\nclass = y[0]", fillcolor="#e58139"] ;
105 -> 106 ;
107 [label="gini = 0.278\nsamples = 6\nvalue = [5, 1]\nclass = y[0]", fillcolor="#ea9a61"] ;
105 -> 107 ;
108 [label="gini = 0.5\nsamples = 2\nvalue = [1, 1]\nclass = y[0]", fillcolor="#ffffff"] ;
104 -> 108 ;
109 [label="gini = 0.0\nsamples = 5\nvalue = [5, 0]\nclass = y[0]", fillcolor="#e58139"] ;
103 -> 109 ;
110 [label="gini = 0.5\nsamples = 2\nvalue = [1, 1]\nclass = y[0]", fillcolor="#ffffff"] ;
102 -> 110 ;
111 [label="Age <= 62.5\ngini = 0.142\nsamples = 13\nvalue = [12, 1]\nclass = y[0]", fillcolor="#e78c49"] ;
101 -> 111 ;
112 [label="gini = 0.0\nsamples = 7\nvalue = [7, 0]\nclass = y[0]", fillcolor="#e58139"] ;
111 -> 112 ;
113 [label="Age <= 63.5\ngini = 0.278\nsamples = 6\nvalue = [5, 1]\nclass = y[0]", fillcolor="#ea9a61"] ;
111 -> 113 ;
114 [label="gini = 0.444\nsamples = 3\nvalue = [2, 1]\nclass = y[0]", fillcolor="#f2c09c"] ;
113 -> 114 ;
115 [label="gini = 0.0\nsamples = 3\nvalue = [3, 0]\nclass = y[0]", fillcolor="#e58139"] ;
113 -> 115 ;
116 [label="Age <= 64.5\ngini = 0.098\nsamples = 135\nvalue = [128, 7]\nclass = y[0]", fillcolor="#e68844"] ;
98 -> 116 ;
117 [label="Age <= 52.5\ngini = 0.087\nsamples = 132\nvalue = [126, 6]\nclass = y[0]", fillcolor="#e68742"] ;
116 -> 117 ;
118 [label="Age <= 51.5\ngini = 0.176\nsamples = 41\nvalue = [37, 4]\nclass = y[0]", fillcolor="#e88f4e"] ;
117 -> 118 ;
119 [label="Income <= 91.5\ngini = 0.108\nsamples = 35\nvalue = [33, 2]\nclass = y[0]", fillcolor="#e78945"] ;
118 -> 119 ;
120 [label="Income <= 84.5\ngini = 0.062\nsamples = 31\nvalue = [30, 1]\nclass = y[0]", fillcolor="#e68540"] ;
119 -> 120 ;
121 [label="Age <= 48.5\ngini = 0.245\nsamples = 7\nvalue = [6, 1]\nclass = y[0]", fillcolor="#e9965a"] ;
120 -> 121 ;
122 [label="gini = 0.444\nsamples = 3\nvalue = [2, 1]\nclass = y[0]", fillcolor="#f2c09c"] ;
121 -> 122 ;
123 [label="gini = 0.0\nsamples = 4\nvalue = [4, 0]\nclass = y[0]", fillcolor="#e58139"] ;
121 -> 123 ;
124 [label="gini = 0.0\nsamples = 24\nvalue = [24, 0]\nclass = y[0]", fillcolor="#e58139"] ;
120 -> 124 ;
125 [label="Age <= 50.5\ngini = 0.375\nsamples = 4\nvalue = [3, 1]\nclass = y[0]", fillcolor="#eeab7b"] ;
119 -> 125 ;
126 [label="gini = 0.0\nsamples = 2\nvalue = [2, 0]\nclass = y[0]", fillcolor="#e58139"] ;
125 -> 126 ;
127 [label="gini = 0.5\nsamples = 2\nvalue = [1, 1]\nclass = y[0]", fillcolor="#ffffff"] ;
125 -> 127 ;
128 [label="Income <= 84.5\ngini = 0.444\nsamples = 6\nvalue = [4, 2]\nclass = y[0]", fillcolor="#f2c09c"] ;
118 -> 128 ;
129 [label="gini = 0.0\nsamples = 2\nvalue = [2, 0]\nclass = y[0]", fillcolor="#e58139"] ;
128 -> 129 ;
130 [label="Income <= 87.5\ngini = 0.5\nsamples = 4\nvalue = [2, 2]\nclass = y[0]", fillcolor="#ffffff"] ;
128 -> 130 ;
131 [label="gini = 0.0\nsamples = 1\nvalue = [0, 1]\nclass = y[1]", fillcolor="#399de5"] ;
130 -> 131 ;
132 [label="Income <= 90.5\ngini = 0.444\nsamples = 3\nvalue = [2, 1]\nclass = y[0]", fillcolor="#f2c09c"] ;
130 -> 132 ;
133 [label="gini = 0.0\nsamples = 1\nvalue = [1, 0]\nclass = y[0]", fillcolor="#e58139"] ;
132 -> 133 ;
134 [label="gini = 0.5\nsamples = 2\nvalue = [1, 1]\nclass = y[0]", fillcolor="#ffffff"] ;
132 -> 134 ;
135 [label="Age <= 57.5\ngini = 0.043\nsamples = 91\nvalue = [89, 2]\nclass = y[0]", fillcolor="#e6843d"] ;
117 -> 135 ;
136 [label="gini = 0.0\nsamples = 41\nvalue = [41, 0]\nclass = y[0]", fillcolor="#e58139"] ;
135 -> 136 ;
137 [label="Age <= 59.5\ngini = 0.077\nsamples = 50\nvalue = [48, 2]\nclass = y[0]", fillcolor="#e68641"] ;
135 -> 137 ;
138 [label="Income <= 84.5\ngini = 0.188\nsamples = 19\nvalue = [17, 2]\nclass = y[0]", fillcolor="#e89050"] ;
137 -> 138 ;
139 [label="gini = 0.0\nsamples = 5\nvalue = [5, 0]\nclass = y[0]", fillcolor="#e58139"] ;
138 -> 139 ;
140 [label="Income <= 86.5\ngini = 0.245\nsamples = 14\nvalue = [12, 2]\nclass = y[0]", fillcolor="#e9965a"] ;
138 -> 140 ;
141 [label="Age <= 58.5\ngini = 0.5\nsamples = 2\nvalue = [1, 1]\nclass = y[0]", fillcolor="#ffffff"] ;
140 -> 141 ;
142 [label="gini = 0.0\nsamples = 1\nvalue = [1, 0]\nclass = y[0]", fillcolor="#e58139"] ;
141 -> 142 ;
143 [label="gini = 0.0\nsamples = 1\nvalue = [0, 1]\nclass = y[1]", fillcolor="#399de5"] ;
141 -> 143 ;
144 [label="Age <= 58.5\ngini = 0.153\nsamples = 12\nvalue = [11, 1]\nclass = y[0]", fillcolor="#e78c4b"] ;
140 -> 144 ;
145 [label="Income <= 89.0\ngini = 0.375\nsamples = 4\nvalue = [3, 1]\nclass = y[0]", fillcolor="#eeab7b"] ;
144 -> 145 ;
146 [label="gini = 0.0\nsamples = 1\nvalue = [1, 0]\nclass = y[0]", fillcolor="#e58139"] ;
145 -> 146 ;
147 [label="Income <= 91.0\ngini = 0.444\nsamples = 3\nvalue = [2, 1]\nclass = y[0]", fillcolor="#f2c09c"] ;
145 -> 147 ;
148 [label="gini = 0.5\nsamples = 2\nvalue = [1, 1]\nclass = y[0]", fillcolor="#ffffff"] ;
147 -> 148 ;
149 [label="gini = 0.0\nsamples = 1\nvalue = [1, 0]\nclass = y[0]", fillcolor="#e58139"] ;
147 -> 149 ;
150 [label="gini = 0.0\nsamples = 8\nvalue = [8, 0]\nclass = y[0]", fillcolor="#e58139"] ;
144 -> 150 ;
151 [label="gini = 0.0\nsamples = 31\nvalue = [31, 0]\nclass = y[0]", fillcolor="#e58139"] ;
137 -> 151 ;
152 [label="Income <= 86.5\ngini = 0.444\nsamples = 3\nvalue = [2, 1]\nclass = y[0]", fillcolor="#f2c09c"] ;
116 -> 152 ;
153 [label="gini = 0.0\nsamples = 1\nvalue = [1, 0]\nclass = y[0]", fillcolor="#e58139"] ;
152 -> 153 ;
154 [label="Income <= 90.0\ngini = 0.5\nsamples = 2\nvalue = [1, 1]\nclass = y[0]", fillcolor="#ffffff"] ;
152 -> 154 ;
155 [label="gini = 0.0\nsamples = 1\nvalue = [0, 1]\nclass = y[1]", fillcolor="#399de5"] ;
154 -> 155 ;
156 [label="gini = 0.0\nsamples = 1\nvalue = [1, 0]\nclass = y[0]", fillcolor="#e58139"] ;
154 -> 156 ;
157 [label="Income <= 98.5\ngini = 0.261\nsamples = 383\nvalue = [324, 59]\nclass = y[0]", fillcolor="#ea985d"] ;
1 -> 157 ;
158 [label="Age <= 64.5\ngini = 0.172\nsamples = 116\nvalue = [105, 11]\nclass = y[0]", fillcolor="#e88e4e"] ;
157 -> 158 ;
159 [label="Age <= 33.0\ngini = 0.149\nsamples = 111\nvalue = [102, 9]\nclass = y[0]", fillcolor="#e78c4a"] ;
158 -> 159 ;
160 [label="Age <= 29.0\ngini = 0.278\nsamples = 18\nvalue = [15, 3]\nclass = y[0]", fillcolor="#ea9a61"] ;
159 -> 160 ;
161 [label="gini = 0.0\nsamples = 8\nvalue = [8, 0]\nclass = y[0]", fillcolor="#e58139"] ;
160 -> 161 ;
162 [label="Age <= 31.5\ngini = 0.42\nsamples = 10\nvalue = [7, 3]\nclass = y[0]", fillcolor="#f0b78e"] ;
160 -> 162 ;
163 [label="Income <= 96.5\ngini = 0.48\nsamples = 5\nvalue = [3, 2]\nclass = y[0]", fillcolor="#f6d5bd"] ;
162 -> 163 ;
164 [label="Age <= 30.5\ngini = 0.444\nsamples = 3\nvalue = [1, 2]\nclass = y[1]", fillcolor="#9ccef2"] ;
163 -> 164 ;
165 [label="gini = 0.5\nsamples = 2\nvalue = [1, 1]\nclass = y[0]", fillcolor="#ffffff"] ;
164 -> 165 ;
166 [label="gini = 0.0\nsamples = 1\nvalue = [0, 1]\nclass = y[1]", fillcolor="#399de5"] ;
164 -> 166 ;
167 [label="gini = 0.0\nsamples = 2\nvalue = [2, 0]\nclass = y[0]", fillcolor="#e58139"] ;
163 -> 167 ;
168 [label="Income <= 96.0\ngini = 0.32\nsamples = 5\nvalue = [4, 1]\nclass = y[0]", fillcolor="#eca06a"] ;
162 -> 168 ;
169 [label="gini = 0.0\nsamples = 2\nvalue = [2, 0]\nclass = y[0]", fillcolor="#e58139"] ;
168 -> 169 ;
170 [label="gini = 0.444\nsamples = 3\nvalue = [2, 1]\nclass = y[0]", fillcolor="#f2c09c"] ;
168 -> 170 ;
171 [label="Age <= 38.5\ngini = 0.121\nsamples = 93\nvalue = [87, 6]\nclass = y[0]", fillcolor="#e78a47"] ;
159 -> 171 ;
172 [label="gini = 0.0\nsamples = 14\nvalue = [14, 0]\nclass = y[0]", fillcolor="#e58139"] ;
171 -> 172 ;
173 [label="Age <= 39.5\ngini = 0.14\nsamples = 79\nvalue = [73, 6]\nclass = y[0]", fillcolor="#e78b49"] ;
171 -> 173 ;
174 [label="Income <= 93.5\ngini = 0.375\nsamples = 4\nvalue = [3, 1]\nclass = y[0]", fillcolor="#eeab7b"] ;
173 -> 174 ;
175 [label="gini = 0.5\nsamples = 2\nvalue = [1, 1]\nclass = y[0]", fillcolor="#ffffff"] ;
174 -> 175 ;
176 [label="gini = 0.0\nsamples = 2\nvalue = [2, 0]\nclass = y[0]", fillcolor="#e58139"] ;
174 -> 176 ;
177 [label="Age <= 61.0\ngini = 0.124\nsamples = 75\nvalue = [70, 5]\nclass = y[0]", fillcolor="#e78a47"] ;
173 -> 177 ;
178 [label="Age <= 56.5\ngini = 0.109\nsamples = 69\nvalue = [65, 4]\nclass = y[0]", fillcolor="#e78945"] ;
177 -> 178 ;
179 [label="Age <= 55.5\ngini = 0.133\nsamples = 56\nvalue = [52, 4]\nclass = y[0]", fillcolor="#e78b48"] ;
178 -> 179 ;
180 [label="Age <= 52.5\ngini = 0.103\nsamples = 55\nvalue = [52, 3]\nclass = y[0]", fillcolor="#e68844"] ;
179 -> 180 ;
181 [label="Age <= 51.5\ngini = 0.139\nsamples = 40\nvalue = [37, 3]\nclass = y[0]", fillcolor="#e78b49"] ;
180 -> 181 ;
182 [label="Income <= 93.5\ngini = 0.105\nsamples = 36\nvalue = [34, 2]\nclass = y[0]", fillcolor="#e78845"] ;
181 -> 182 ;
183 [label="gini = 0.0\nsamples = 13\nvalue = [13, 0]\nclass = y[0]", fillcolor="#e58139"] ;
182 -> 183 ;
184 [label="Income <= 96.5\ngini = 0.159\nsamples = 23\nvalue = [21, 2]\nclass = y[0]", fillcolor="#e78d4c"] ;
182 -> 184 ;
185 [label="Age <= 41.5\ngini = 0.26\nsamples = 13\nvalue = [11, 2]\nclass = y[0]", fillcolor="#ea985d"] ;
184 -> 185 ;
186 [label="Income <= 94.5\ngini = 0.5\nsamples = 2\nvalue = [1, 1]\nclass = y[0]", fillcolor="#ffffff"] ;
185 -> 186 ;
187 [label="gini = 0.0\nsamples = 1\nvalue = [0, 1]\nclass = y[1]", fillcolor="#399de5"] ;
186 -> 187 ;
188 [label="gini = 0.0\nsamples = 1\nvalue = [1, 0]\nclass = y[0]", fillcolor="#e58139"] ;
186 -> 188 ;
189 [label="Income <= 94.5\ngini = 0.165\nsamples = 11\nvalue = [10, 1]\nclass = y[0]", fillcolor="#e88e4d"] ;
185 -> 189 ;
190 [label="gini = 0.0\nsamples = 8\nvalue = [8, 0]\nclass = y[0]", fillcolor="#e58139"] ;
189 -> 190 ;
191 [label="Age <= 44.5\ngini = 0.444\nsamples = 3\nvalue = [2, 1]\nclass = y[0]", fillcolor="#f2c09c"] ;
189 -> 191 ;
192 [label="gini = 0.0\nsamples = 1\nvalue = [1, 0]\nclass = y[0]", fillcolor="#e58139"] ;
191 -> 192 ;
193 [label="Age <= 48.5\ngini = 0.5\nsamples = 2\nvalue = [1, 1]\nclass = y[0]", fillcolor="#ffffff"] ;
191 -> 193 ;
194 [label="gini = 0.0\nsamples = 1\nvalue = [0, 1]\nclass = y[1]", fillcolor="#399de5"] ;
193 -> 194 ;
195 [label="gini = 0.0\nsamples = 1\nvalue = [1, 0]\nclass = y[0]", fillcolor="#e58139"] ;
193 -> 195 ;
196 [label="gini = 0.0\nsamples = 10\nvalue = [10, 0]\nclass = y[0]", fillcolor="#e58139"] ;
184 -> 196 ;
197 [label="Income <= 93.5\ngini = 0.375\nsamples = 4\nvalue = [3, 1]\nclass = y[0]", fillcolor="#eeab7b"] ;
181 -> 197 ;
198 [label="gini = 0.5\nsamples = 2\nvalue = [1, 1]\nclass = y[0]", fillcolor="#ffffff"] ;
197 -> 198 ;
199 [label="gini = 0.0\nsamples = 2\nvalue = [2, 0]\nclass = y[0]", fillcolor="#e58139"] ;
197 -> 199 ;
200 [label="gini = 0.0\nsamples = 15\nvalue = [15, 0]\nclass = y[0]", fillcolor="#e58139"] ;
180 -> 200 ;
201 [label="gini = 0.0\nsamples = 1\nvalue = [0, 1]\nclass = y[1]", fillcolor="#399de5"] ;
179 -> 201 ;
202 [label="gini = 0.0\nsamples = 13\nvalue = [13, 0]\nclass = y[0]", fillcolor="#e58139"] ;
178 -> 202 ;
203 [label="Income <= 94.0\ngini = 0.278\nsamples = 6\nvalue = [5, 1]\nclass = y[0]", fillcolor="#ea9a61"] ;
177 -> 203 ;
204 [label="gini = 0.0\nsamples = 1\nvalue = [0, 1]\nclass = y[1]", fillcolor="#399de5"] ;
203 -> 204 ;
205 [label="gini = 0.0\nsamples = 5\nvalue = [5, 0]\nclass = y[0]", fillcolor="#e58139"] ;
203 -> 205 ;
206 [label="Age <= 65.5\ngini = 0.48\nsamples = 5\nvalue = [3, 2]\nclass = y[0]", fillcolor="#f6d5bd"] ;
158 -> 206 ;
207 [label="Income <= 96.5\ngini = 0.5\nsamples = 4\nvalue = [2, 2]\nclass = y[0]", fillcolor="#ffffff"] ;
206 -> 207 ;
208 [label="Income <= 94.5\ngini = 0.444\nsamples = 3\nvalue = [1, 2]\nclass = y[1]", fillcolor="#9ccef2"] ;
207 -> 208 ;
209 [label="gini = 0.5\nsamples = 2\nvalue = [1, 1]\nclass = y[0]", fillcolor="#ffffff"] ;
208 -> 209 ;
210 [label="gini = 0.0\nsamples = 1\nvalue = [0, 1]\nclass = y[1]", fillcolor="#399de5"] ;
208 -> 210 ;
211 [label="gini = 0.0\nsamples = 1\nvalue = [1, 0]\nclass = y[0]", fillcolor="#e58139"] ;
207 -> 211 ;
212 [label="gini = 0.0\nsamples = 1\nvalue = [1, 0]\nclass = y[0]", fillcolor="#e58139"] ;
206 -> 212 ;
213 [label="Age <= 34.5\ngini = 0.295\nsamples = 267\nvalue = [219, 48]\nclass = y[0]", fillcolor="#eb9d64"] ;
157 -> 213 ;
214 [label="Age <= 26.5\ngini = 0.174\nsamples = 83\nvalue = [75, 8]\nclass = y[0]", fillcolor="#e88e4e"] ;
213 -> 214 ;
215 [label="gini = 0.0\nsamples = 13\nvalue = [13, 0]\nclass = y[0]", fillcolor="#e58139"] ;
214 -> 215 ;
216 [label="Age <= 30.5\ngini = 0.202\nsamples = 70\nvalue = [62, 8]\nclass = y[0]", fillcolor="#e89153"] ;
214 -> 216 ;
217 [label="Income <= 100.0\ngini = 0.278\nsamples = 36\nvalue = [30, 6]\nclass = y[0]", fillcolor="#ea9a61"] ;
216 -> 217 ;
218 [label="gini = 0.0\nsamples = 1\nvalue = [0, 1]\nclass = y[1]", fillcolor="#399de5"] ;
217 -> 218 ;
219 [label="Income <= 102.5\ngini = 0.245\nsamples = 35\nvalue = [30, 5]\nclass = y[0]", fillcolor="#e9965a"] ;
217 -> 219 ;
220 [label="gini = 0.0\nsamples = 6\nvalue = [6, 0]\nclass = y[0]", fillcolor="#e58139"] ;
219 -> 220 ;
221 [label="Age <= 27.5\ngini = 0.285\nsamples = 29\nvalue = [24, 5]\nclass = y[0]", fillcolor="#ea9b62"] ;
219 -> 221 ;
222 [label="Income <= 107.0\ngini = 0.153\nsamples = 12\nvalue = [11, 1]\nclass = y[0]", fillcolor="#e78c4b"] ;
221 -> 222 ;
223 [label="Income <= 104.5\ngini = 0.375\nsamples = 4\nvalue = [3, 1]\nclass = y[0]", fillcolor="#eeab7b"] ;
222 -> 223 ;
224 [label="gini = 0.0\nsamples = 3\nvalue = [3, 0]\nclass = y[0]", fillcolor="#e58139"] ;
223 -> 224 ;
225 [label="gini = 0.0\nsamples = 1\nvalue = [0, 1]\nclass = y[1]", fillcolor="#399de5"] ;
223 -> 225 ;
226 [label="gini = 0.0\nsamples = 8\nvalue = [8, 0]\nclass = y[0]", fillcolor="#e58139"] ;
222 -> 226 ;
227 [label="Income <= 112.5\ngini = 0.36\nsamples = 17\nvalue = [13, 4]\nclass = y[0]", fillcolor="#eda876"] ;
221 -> 227 ;
228 [label="Income <= 109.5\ngini = 0.408\nsamples = 14\nvalue = [10, 4]\nclass = y[0]", fillcolor="#efb388"] ;
227 -> 228 ;
229 [label="Income <= 103.5\ngini = 0.278\nsamples = 6\nvalue = [5, 1]\nclass = y[0]", fillcolor="#ea9a61"] ;
228 -> 229 ;
230 [label="Age <= 28.5\ngini = 0.5\nsamples = 2\nvalue = [1, 1]\nclass = y[0]", fillcolor="#ffffff"] ;
229 -> 230 ;
231 [label="gini = 0.0\nsamples = 1\nvalue = [1, 0]\nclass = y[0]", fillcolor="#e58139"] ;
230 -> 231 ;
232 [label="gini = 0.0\nsamples = 1\nvalue = [0, 1]\nclass = y[1]", fillcolor="#399de5"] ;
230 -> 232 ;
233 [label="gini = 0.0\nsamples = 4\nvalue = [4, 0]\nclass = y[0]", fillcolor="#e58139"] ;
229 -> 233 ;
234 [label="Age <= 28.5\ngini = 0.469\nsamples = 8\nvalue = [5, 3]\nclass = y[0]", fillcolor="#f5cdb0"] ;
228 -> 234 ;
235 [label="Income <= 111.5\ngini = 0.5\nsamples = 2\nvalue = [1, 1]\nclass = y[0]", fillcolor="#ffffff"] ;
234 -> 235 ;
236 [label="gini = 0.0\nsamples = 1\nvalue = [1, 0]\nclass = y[0]", fillcolor="#e58139"] ;
235 -> 236 ;
237 [label="gini = 0.0\nsamples = 1\nvalue = [0, 1]\nclass = y[1]", fillcolor="#399de5"] ;
235 -> 237 ;
238 [label="Income <= 111.0\ngini = 0.444\nsamples = 6\nvalue = [4, 2]\nclass = y[0]", fillcolor="#f2c09c"] ;
234 -> 238 ;
239 [label="Age <= 29.5\ngini = 0.5\nsamples = 2\nvalue = [1, 1]\nclass = y[0]", fillcolor="#ffffff"] ;
238 -> 239 ;
240 [label="gini = 0.0\nsamples = 1\nvalue = [0, 1]\nclass = y[1]", fillcolor="#399de5"] ;
239 -> 240 ;
241 [label="gini = 0.0\nsamples = 1\nvalue = [1, 0]\nclass = y[0]", fillcolor="#e58139"] ;
239 -> 241 ;
242 [label="Age <= 29.5\ngini = 0.375\nsamples = 4\nvalue = [3, 1]\nclass = y[0]", fillcolor="#eeab7b"] ;
238 -> 242 ;
243 [label="gini = 0.0\nsamples = 2\nvalue = [2, 0]\nclass = y[0]", fillcolor="#e58139"] ;
242 -> 243 ;
244 [label="gini = 0.5\nsamples = 2\nvalue = [1, 1]\nclass = y[0]", fillcolor="#ffffff"] ;
242 -> 244 ;
245 [label="gini = 0.0\nsamples = 3\nvalue = [3, 0]\nclass = y[0]", fillcolor="#e58139"] ;
227 -> 245 ;
246 [label="Income <= 104.5\ngini = 0.111\nsamples = 34\nvalue = [32, 2]\nclass = y[0]", fillcolor="#e78945"] ;
216 -> 246 ;
247 [label="Income <= 103.0\ngini = 0.208\nsamples = 17\nvalue = [15, 2]\nclass = y[0]", fillcolor="#e89253"] ;
246 -> 247 ;
248 [label="gini = 0.0\nsamples = 13\nvalue = [13, 0]\nclass = y[0]", fillcolor="#e58139"] ;
247 -> 248 ;
249 [label="Age <= 33.5\ngini = 0.5\nsamples = 4\nvalue = [2, 2]\nclass = y[0]", fillcolor="#ffffff"] ;
247 -> 249 ;
250 [label="gini = 0.0\nsamples = 2\nvalue = [0, 2]\nclass = y[1]", fillcolor="#399de5"] ;
249 -> 250 ;
251 [label="gini = 0.0\nsamples = 2\nvalue = [2, 0]\nclass = y[0]", fillcolor="#e58139"] ;
249 -> 251 ;
252 [label="gini = 0.0\nsamples = 17\nvalue = [17, 0]\nclass = y[0]", fillcolor="#e58139"] ;
246 -> 252 ;
253 [label="Age <= 36.5\ngini = 0.34\nsamples = 184\nvalue = [144, 40]\nclass = y[0]", fillcolor="#eca470"] ;
213 -> 253 ;
254 [label="Income <= 106.5\ngini = 0.49\nsamples = 14\nvalue = [8, 6]\nclass = y[0]", fillcolor="#f8e0ce"] ;
253 -> 254 ;
255 [label="Income <= 102.0\ngini = 0.219\nsamples = 8\nvalue = [7, 1]\nclass = y[0]", fillcolor="#e99355"] ;
254 -> 255 ;
256 [label="Age <= 35.5\ngini = 0.444\nsamples = 3\nvalue = [2, 1]\nclass = y[0]", fillcolor="#f2c09c"] ;
255 -> 256 ;
257 [label="Income <= 100.5\ngini = 0.5\nsamples = 2\nvalue = [1, 1]\nclass = y[0]", fillcolor="#ffffff"] ;
256 -> 257 ;
258 [label="gini = 0.0\nsamples = 1\nvalue = [1, 0]\nclass = y[0]", fillcolor="#e58139"] ;
257 -> 258 ;
259 [label="gini = 0.0\nsamples = 1\nvalue = [0, 1]\nclass = y[1]", fillcolor="#399de5"] ;
257 -> 259 ;
260 [label="gini = 0.0\nsamples = 1\nvalue = [1, 0]\nclass = y[0]", fillcolor="#e58139"] ;
256 -> 260 ;
261 [label="gini = 0.0\nsamples = 5\nvalue = [5, 0]\nclass = y[0]", fillcolor="#e58139"] ;
255 -> 261 ;
262 [label="Income <= 109.5\ngini = 0.278\nsamples = 6\nvalue = [1, 5]\nclass = y[1]", fillcolor="#61b1ea"] ;
254 -> 262 ;
263 [label="gini = 0.0\nsamples = 3\nvalue = [0, 3]\nclass = y[1]", fillcolor="#399de5"] ;
262 -> 263 ;
264 [label="Income <= 111.5\ngini = 0.444\nsamples = 3\nvalue = [1, 2]\nclass = y[1]", fillcolor="#9ccef2"] ;
262 -> 264 ;
265 [label="gini = 0.0\nsamples = 1\nvalue = [1, 0]\nclass = y[0]", fillcolor="#e58139"] ;
264 -> 265 ;
266 [label="gini = 0.0\nsamples = 2\nvalue = [0, 2]\nclass = y[1]", fillcolor="#399de5"] ;
264 -> 266 ;
267 [label="Age <= 41.5\ngini = 0.32\nsamples = 170\nvalue = [136, 34]\nclass = y[0]", fillcolor="#eca06a"] ;
253 -> 267 ;
268 [label="Income <= 112.5\ngini = 0.128\nsamples = 29\nvalue = [27, 2]\nclass = y[0]", fillcolor="#e78a48"] ;
267 -> 268 ;
269 [label="Income <= 106.5\ngini = 0.074\nsamples = 26\nvalue = [25, 1]\nclass = y[0]", fillcolor="#e68641"] ;
268 -> 269 ;
270 [label="gini = 0.0\nsamples = 16\nvalue = [16, 0]\nclass = y[0]", fillcolor="#e58139"] ;
269 -> 270 ;
271 [label="Income <= 108.5\ngini = 0.18\nsamples = 10\nvalue = [9, 1]\nclass = y[0]", fillcolor="#e88f4f"] ;
269 -> 271 ;
272 [label="Age <= 40.0\ngini = 0.444\nsamples = 3\nvalue = [2, 1]\nclass = y[0]", fillcolor="#f2c09c"] ;
271 -> 272 ;
273 [label="gini = 0.5\nsamples = 2\nvalue = [1, 1]\nclass = y[0]", fillcolor="#ffffff"] ;
272 -> 273 ;
274 [label="gini = 0.0\nsamples = 1\nvalue = [1, 0]\nclass = y[0]", fillcolor="#e58139"] ;
272 -> 274 ;
275 [label="gini = 0.0\nsamples = 7\nvalue = [7, 0]\nclass = y[0]", fillcolor="#e58139"] ;
271 -> 275 ;
276 [label="Age <= 38.5\ngini = 0.444\nsamples = 3\nvalue = [2, 1]\nclass = y[0]", fillcolor="#f2c09c"] ;
268 -> 276 ;
277 [label="gini = 0.0\nsamples = 1\nvalue = [0, 1]\nclass = y[1]", fillcolor="#399de5"] ;
276 -> 277 ;
278 [label="gini = 0.0\nsamples = 2\nvalue = [2, 0]\nclass = y[0]", fillcolor="#e58139"] ;
276 -> 278 ;
279 [label="Age <= 48.5\ngini = 0.351\nsamples = 141\nvalue = [109, 32]\nclass = y[0]", fillcolor="#eda673"] ;
267 -> 279 ;
280 [label="Income <= 112.5\ngini = 0.461\nsamples = 36\nvalue = [23, 13]\nclass = y[0]", fillcolor="#f4c8a9"] ;
279 -> 280 ;
281 [label="Income <= 110.5\ngini = 0.491\nsamples = 30\nvalue = [17, 13]\nclass = y[0]", fillcolor="#f9e1d0"] ;
280 -> 281 ;
282 [label="Income <= 103.5\ngini = 0.454\nsamples = 23\nvalue = [15, 8]\nclass = y[0]", fillcolor="#f3c4a3"] ;
281 -> 282 ;
283 [label="Income <= 101.5\ngini = 0.48\nsamples = 10\nvalue = [4, 6]\nclass = y[1]", fillcolor="#bddef6"] ;
282 -> 283 ;
284 [label="Age <= 45.0\ngini = 0.48\nsamples = 5\nvalue = [3, 2]\nclass = y[0]", fillcolor="#f6d5bd"] ;
283 -> 284 ;
285 [label="gini = 0.0\nsamples = 2\nvalue = [0, 2]\nclass = y[1]", fillcolor="#399de5"] ;
284 -> 285 ;
286 [label="gini = 0.0\nsamples = 3\nvalue = [3, 0]\nclass = y[0]", fillcolor="#e58139"] ;
284 -> 286 ;
287 [label="Age <= 44.0\ngini = 0.32\nsamples = 5\nvalue = [1, 4]\nclass = y[1]", fillcolor="#6ab6ec"] ;
283 -> 287 ;
288 [label="Age <= 42.5\ngini = 0.5\nsamples = 2\nvalue = [1, 1]\nclass = y[0]", fillcolor="#ffffff"] ;
287 -> 288 ;
289 [label="gini = 0.0\nsamples = 1\nvalue = [0, 1]\nclass = y[1]", fillcolor="#399de5"] ;
288 -> 289 ;
290 [label="gini = 0.0\nsamples = 1\nvalue = [1, 0]\nclass = y[0]", fillcolor="#e58139"] ;
288 -> 290 ;
291 [label="gini = 0.0\nsamples = 3\nvalue = [0, 3]\nclass = y[1]", fillcolor="#399de5"] ;
287 -> 291 ;
292 [label="Age <= 45.5\ngini = 0.26\nsamples = 13\nvalue = [11, 2]\nclass = y[0]", fillcolor="#ea985d"] ;
282 -> 292 ;
293 [label="gini = 0.0\nsamples = 7\nvalue = [7, 0]\nclass = y[0]", fillcolor="#e58139"] ;
292 -> 293 ;
294 [label="Age <= 47.5\ngini = 0.444\nsamples = 6\nvalue = [4, 2]\nclass = y[0]", fillcolor="#f2c09c"] ;
292 -> 294 ;
295 [label="Income <= 104.5\ngini = 0.48\nsamples = 5\nvalue = [3, 2]\nclass = y[0]", fillcolor="#f6d5bd"] ;
294 -> 295 ;
296 [label="gini = 0.0\nsamples = 1\nvalue = [1, 0]\nclass = y[0]", fillcolor="#e58139"] ;
295 -> 296 ;
297 [label="Income <= 109.5\ngini = 0.5\nsamples = 4\nvalue = [2, 2]\nclass = y[0]", fillcolor="#ffffff"] ;
295 -> 297 ;
298 [label="Income <= 107.0\ngini = 0.444\nsamples = 3\nvalue = [1, 2]\nclass = y[1]", fillcolor="#9ccef2"] ;
297 -> 298 ;
299 [label="Age <= 46.5\ngini = 0.5\nsamples = 2\nvalue = [1, 1]\nclass = y[0]", fillcolor="#ffffff"] ;
298 -> 299 ;
300 [label="gini = 0.0\nsamples = 1\nvalue = [0, 1]\nclass = y[1]", fillcolor="#399de5"] ;
299 -> 300 ;
301 [label="gini = 0.0\nsamples = 1\nvalue = [1, 0]\nclass = y[0]", fillcolor="#e58139"] ;
299 -> 301 ;
302 [label="gini = 0.0\nsamples = 1\nvalue = [0, 1]\nclass = y[1]", fillcolor="#399de5"] ;
298 -> 302 ;
303 [label="gini = 0.0\nsamples = 1\nvalue = [1, 0]\nclass = y[0]", fillcolor="#e58139"] ;
297 -> 303 ;
304 [label="gini = 0.0\nsamples = 1\nvalue = [1, 0]\nclass = y[0]", fillcolor="#e58139"] ;
294 -> 304 ;
305 [label="Age <= 45.0\ngini = 0.408\nsamples = 7\nvalue = [2, 5]\nclass = y[1]", fillcolor="#88c4ef"] ;
281 -> 305 ;
306 [label="gini = 0.0\nsamples = 4\nvalue = [0, 4]\nclass = y[1]", fillcolor="#399de5"] ;
305 -> 306 ;
307 [label="Age <= 47.0\ngini = 0.444\nsamples = 3\nvalue = [2, 1]\nclass = y[0]", fillcolor="#f2c09c"] ;
305 -> 307 ;
308 [label="gini = 0.0\nsamples = 2\nvalue = [2, 0]\nclass = y[0]", fillcolor="#e58139"] ;
307 -> 308 ;
309 [label="gini = 0.0\nsamples = 1\nvalue = [0, 1]\nclass = y[1]", fillcolor="#399de5"] ;
307 -> 309 ;
310 [label="gini = 0.0\nsamples = 6\nvalue = [6, 0]\nclass = y[0]", fillcolor="#e58139"] ;
280 -> 310 ;
311 [label="Income <= 111.5\ngini = 0.296\nsamples = 105\nvalue = [86, 19]\nclass = y[0]", fillcolor="#eb9d65"] ;
279 -> 311 ;
312 [label="Age <= 56.5\ngini = 0.335\nsamples = 80\nvalue = [63, 17]\nclass = y[0]", fillcolor="#eca36e"] ;
311 -> 312 ;
313 [label="Income <= 110.5\ngini = 0.412\nsamples = 31\nvalue = [22, 9]\nclass = y[0]", fillcolor="#f0b58a"] ;
312 -> 313 ;
314 [label="Age <= 49.5\ngini = 0.346\nsamples = 27\nvalue = [21, 6]\nclass = y[0]", fillcolor="#eca572"] ;
313 -> 314 ;
315 [label="gini = 0.0\nsamples = 5\nvalue = [5, 0]\nclass = y[0]", fillcolor="#e58139"] ;
314 -> 315 ;
316 [label="Income <= 102.5\ngini = 0.397\nsamples = 22\nvalue = [16, 6]\nclass = y[0]", fillcolor="#efb083"] ;
314 -> 316 ;
317 [label="Income <= 100.5\ngini = 0.278\nsamples = 12\nvalue = [10, 2]\nclass = y[0]", fillcolor="#ea9a61"] ;
316 -> 317 ;
318 [label="Age <= 54.5\ngini = 0.48\nsamples = 5\nvalue = [3, 2]\nclass = y[0]", fillcolor="#f6d5bd"] ;
317 -> 318 ;
319 [label="Income <= 99.5\ngini = 0.444\nsamples = 3\nvalue = [1, 2]\nclass = y[1]", fillcolor="#9ccef2"] ;
318 -> 319 ;
320 [label="Age <= 50.5\ngini = 0.5\nsamples = 2\nvalue = [1, 1]\nclass = y[0]", fillcolor="#ffffff"] ;
319 -> 320 ;
321 [label="gini = 0.0\nsamples = 1\nvalue = [0, 1]\nclass = y[1]", fillcolor="#399de5"] ;
320 -> 321 ;
322 [label="gini = 0.0\nsamples = 1\nvalue = [1, 0]\nclass = y[0]", fillcolor="#e58139"] ;
320 -> 322 ;
323 [label="gini = 0.0\nsamples = 1\nvalue = [0, 1]\nclass = y[1]", fillcolor="#399de5"] ;
319 -> 323 ;
324 [label="gini = 0.0\nsamples = 2\nvalue = [2, 0]\nclass = y[0]", fillcolor="#e58139"] ;
318 -> 324 ;
325 [label="gini = 0.0\nsamples = 7\nvalue = [7, 0]\nclass = y[0]", fillcolor="#e58139"] ;
317 -> 325 ;
326 [label="Age <= 50.5\ngini = 0.48\nsamples = 10\nvalue = [6, 4]\nclass = y[0]", fillcolor="#f6d5bd"] ;
316 -> 326 ;
327 [label="gini = 0.0\nsamples = 2\nvalue = [2, 0]\nclass = y[0]", fillcolor="#e58139"] ;
326 -> 327 ;
328 [label="Age <= 51.5\ngini = 0.5\nsamples = 8\nvalue = [4, 4]\nclass = y[0]", fillcolor="#ffffff"] ;
326 -> 328 ;
329 [label="gini = 0.0\nsamples = 1\nvalue = [0, 1]\nclass = y[1]", fillcolor="#399de5"] ;
328 -> 329 ;
330 [label="Age <= 55.5\ngini = 0.49\nsamples = 7\nvalue = [4, 3]\nclass = y[0]", fillcolor="#f8e0ce"] ;
328 -> 330 ;
331 [label="Income <= 106.0\ngini = 0.444\nsamples = 6\nvalue = [4, 2]\nclass = y[0]", fillcolor="#f2c09c"] ;
330 -> 331 ;
332 [label="gini = 0.0\nsamples = 2\nvalue = [2, 0]\nclass = y[0]", fillcolor="#e58139"] ;
331 -> 332 ;
333 [label="Income <= 108.5\ngini = 0.5\nsamples = 4\nvalue = [2, 2]\nclass = y[0]", fillcolor="#ffffff"] ;
331 -> 333 ;
334 [label="gini = 0.0\nsamples = 1\nvalue = [0, 1]\nclass = y[1]", fillcolor="#399de5"] ;
333 -> 334 ;
335 [label="Age <= 52.5\ngini = 0.444\nsamples = 3\nvalue = [2, 1]\nclass = y[0]", fillcolor="#f2c09c"] ;
333 -> 335 ;
336 [label="Income <= 109.5\ngini = 0.5\nsamples = 2\nvalue = [1, 1]\nclass = y[0]", fillcolor="#ffffff"] ;
335 -> 336 ;
337 [label="gini = 0.0\nsamples = 1\nvalue = [1, 0]\nclass = y[0]", fillcolor="#e58139"] ;
336 -> 337 ;
338 [label="gini = 0.0\nsamples = 1\nvalue = [0, 1]\nclass = y[1]", fillcolor="#399de5"] ;
336 -> 338 ;
339 [label="gini = 0.0\nsamples = 1\nvalue = [1, 0]\nclass = y[0]", fillcolor="#e58139"] ;
335 -> 339 ;
340 [label="gini = 0.0\nsamples = 1\nvalue = [0, 1]\nclass = y[1]", fillcolor="#399de5"] ;
330 -> 340 ;
341 [label="Age <= 54.5\ngini = 0.375\nsamples = 4\nvalue = [1, 3]\nclass = y[1]", fillcolor="#7bbeee"] ;
313 -> 341 ;
342 [label="gini = 0.5\nsamples = 2\nvalue = [1, 1]\nclass = y[0]", fillcolor="#ffffff"] ;
341 -> 342 ;
343 [label="gini = 0.0\nsamples = 2\nvalue = [0, 2]\nclass = y[1]", fillcolor="#399de5"] ;
341 -> 343 ;
344 [label="Income <= 102.5\ngini = 0.273\nsamples = 49\nvalue = [41, 8]\nclass = y[0]", fillcolor="#ea9a60"] ;
312 -> 344 ;
345 [label="Age <= 58.5\ngini = 0.388\nsamples = 19\nvalue = [14, 5]\nclass = y[0]", fillcolor="#eeae80"] ;
344 -> 345 ;
346 [label="gini = 0.0\nsamples = 2\nvalue = [2, 0]\nclass = y[0]", fillcolor="#e58139"] ;
345 -> 346 ;
347 [label="Age <= 63.5\ngini = 0.415\nsamples = 17\nvalue = [12, 5]\nclass = y[0]", fillcolor="#f0b58b"] ;
345 -> 347 ;
348 [label="Age <= 62.5\ngini = 0.444\nsamples = 15\nvalue = [10, 5]\nclass = y[0]", fillcolor="#f2c09c"] ;
347 -> 348 ;
349 [label="Age <= 61.5\ngini = 0.397\nsamples = 11\nvalue = [8, 3]\nclass = y[0]", fillcolor="#efb083"] ;
348 -> 349 ;
350 [label="Age <= 60.5\ngini = 0.469\nsamples = 8\nvalue = [5, 3]\nclass = y[0]", fillcolor="#f5cdb0"] ;
349 -> 350 ;
351 [label="Age <= 59.5\ngini = 0.408\nsamples = 7\nvalue = [5, 2]\nclass = y[0]", fillcolor="#efb388"] ;
350 -> 351 ;
352 [label="Income <= 99.5\ngini = 0.48\nsamples = 5\nvalue = [3, 2]\nclass = y[0]", fillcolor="#f6d5bd"] ;
351 -> 352 ;
353 [label="gini = 0.5\nsamples = 2\nvalue = [1, 1]\nclass = y[0]", fillcolor="#ffffff"] ;
352 -> 353 ;
354 [label="Income <= 101.0\ngini = 0.444\nsamples = 3\nvalue = [2, 1]\nclass = y[0]", fillcolor="#f2c09c"] ;
352 -> 354 ;
355 [label="gini = 0.0\nsamples = 1\nvalue = [1, 0]\nclass = y[0]", fillcolor="#e58139"] ;
354 -> 355 ;
356 [label="gini = 0.5\nsamples = 2\nvalue = [1, 1]\nclass = y[0]", fillcolor="#ffffff"] ;
354 -> 356 ;
357 [label="gini = 0.0\nsamples = 2\nvalue = [2, 0]\nclass = y[0]", fillcolor="#e58139"] ;
351 -> 357 ;
358 [label="gini = 0.0\nsamples = 1\nvalue = [0, 1]\nclass = y[1]", fillcolor="#399de5"] ;
350 -> 358 ;
359 [label="gini = 0.0\nsamples = 3\nvalue = [3, 0]\nclass = y[0]", fillcolor="#e58139"] ;
349 -> 359 ;
360 [label="Income <= 101.5\ngini = 0.5\nsamples = 4\nvalue = [2, 2]\nclass = y[0]", fillcolor="#ffffff"] ;
348 -> 360 ;
361 [label="gini = 0.444\nsamples = 3\nvalue = [1, 2]\nclass = y[1]", fillcolor="#9ccef2"] ;
360 -> 361 ;
362 [label="gini = 0.0\nsamples = 1\nvalue = [1, 0]\nclass = y[0]", fillcolor="#e58139"] ;
360 -> 362 ;
363 [label="gini = 0.0\nsamples = 2\nvalue = [2, 0]\nclass = y[0]", fillcolor="#e58139"] ;
347 -> 363 ;
364 [label="Age <= 62.5\ngini = 0.18\nsamples = 30\nvalue = [27, 3]\nclass = y[0]", fillcolor="#e88f4f"] ;
344 -> 364 ;
365 [label="Age <= 59.5\ngini = 0.111\nsamples = 17\nvalue = [16, 1]\nclass = y[0]", fillcolor="#e78945"] ;
364 -> 365 ;
366 [label="Income <= 109.0\ngini = 0.219\nsamples = 8\nvalue = [7, 1]\nclass = y[0]", fillcolor="#e99355"] ;
365 -> 366 ;
367 [label="Income <= 105.5\ngini = 0.444\nsamples = 3\nvalue = [2, 1]\nclass = y[0]", fillcolor="#f2c09c"] ;
366 -> 367 ;
368 [label="gini = 0.0\nsamples = 1\nvalue = [1, 0]\nclass = y[0]", fillcolor="#e58139"] ;
367 -> 368 ;
369 [label="Age <= 58.5\ngini = 0.5\nsamples = 2\nvalue = [1, 1]\nclass = y[0]", fillcolor="#ffffff"] ;
367 -> 369 ;
370 [label="gini = 0.0\nsamples = 1\nvalue = [1, 0]\nclass = y[0]", fillcolor="#e58139"] ;
369 -> 370 ;
371 [label="gini = 0.0\nsamples = 1\nvalue = [0, 1]\nclass = y[1]", fillcolor="#399de5"] ;
369 -> 371 ;
372 [label="gini = 0.0\nsamples = 5\nvalue = [5, 0]\nclass = y[0]", fillcolor="#e58139"] ;
366 -> 372 ;
373 [label="gini = 0.0\nsamples = 9\nvalue = [9, 0]\nclass = y[0]", fillcolor="#e58139"] ;
365 -> 373 ;
374 [label="Income <= 109.5\ngini = 0.26\nsamples = 13\nvalue = [11, 2]\nclass = y[0]", fillcolor="#ea985d"] ;
364 -> 374 ;
375 [label="Age <= 64.5\ngini = 0.18\nsamples = 10\nvalue = [9, 1]\nclass = y[0]", fillcolor="#e88f4f"] ;
374 -> 375 ;
376 [label="gini = 0.0\nsamples = 4\nvalue = [4, 0]\nclass = y[0]", fillcolor="#e58139"] ;
375 -> 376 ;
377 [label="Age <= 65.5\ngini = 0.278\nsamples = 6\nvalue = [5, 1]\nclass = y[0]", fillcolor="#ea9a61"] ;
375 -> 377 ;
378 [label="gini = 0.375\nsamples = 4\nvalue = [3, 1]\nclass = y[0]", fillcolor="#eeab7b"] ;
377 -> 378 ;
379 [label="gini = 0.0\nsamples = 2\nvalue = [2, 0]\nclass = y[0]", fillcolor="#e58139"] ;
377 -> 379 ;
380 [label="Income <= 110.5\ngini = 0.444\nsamples = 3\nvalue = [2, 1]\nclass = y[0]", fillcolor="#f2c09c"] ;
374 -> 380 ;
381 [label="gini = 0.5\nsamples = 2\nvalue = [1, 1]\nclass = y[0]", fillcolor="#ffffff"] ;
380 -> 381 ;
382 [label="gini = 0.0\nsamples = 1\nvalue = [1, 0]\nclass = y[0]", fillcolor="#e58139"] ;
380 -> 382 ;
383 [label="Age <= 56.5\ngini = 0.147\nsamples = 25\nvalue = [23, 2]\nclass = y[0]", fillcolor="#e78c4a"] ;
311 -> 383 ;
384 [label="gini = 0.0\nsamples = 11\nvalue = [11, 0]\nclass = y[0]", fillcolor="#e58139"] ;
383 -> 384 ;
385 [label="Age <= 58.5\ngini = 0.245\nsamples = 14\nvalue = [12, 2]\nclass = y[0]", fillcolor="#e9965a"] ;
383 -> 385 ;
386 [label="Age <= 57.5\ngini = 0.5\nsamples = 4\nvalue = [2, 2]\nclass = y[0]", fillcolor="#ffffff"] ;
385 -> 386 ;
387 [label="gini = 0.5\nsamples = 2\nvalue = [1, 1]\nclass = y[0]", fillcolor="#ffffff"] ;
386 -> 387 ;
388 [label="gini = 0.5\nsamples = 2\nvalue = [1, 1]\nclass = y[0]", fillcolor="#ffffff"] ;
386 -> 388 ;
389 [label="gini = 0.0\nsamples = 10\nvalue = [10, 0]\nclass = y[0]", fillcolor="#e58139"] ;
385 -> 389 ;
390 [label="Income <= 163.5\ngini = 0.482\nsamples = 979\nvalue = [583, 396]\nclass = y[0]", fillcolor="#f7d7bf"] ;
0 -> 390 [labeldistance=2.5, labelangle=-45, headlabel="False"] ;
391 [label="Age <= 25.5\ngini = 0.45\nsamples = 679\nvalue = [447, 232]\nclass = y[0]", fillcolor="#f2c2a0"] ;
390 -> 391 ;
392 [label="gini = 0.0\nsamples = 14\nvalue = [14, 0]\nclass = y[0]", fillcolor="#e58139"] ;
391 -> 392 ;
393 [label="Income <= 128.5\ngini = 0.454\nsamples = 665\nvalue = [433, 232]\nclass = y[0]", fillcolor="#f3c5a3"] ;
391 -> 393 ;
394 [label="Age <= 59.5\ngini = 0.406\nsamples = 226\nvalue = [162, 64]\nclass = y[0]", fillcolor="#efb387"] ;
393 -> 394 ;
395 [label="Age <= 37.5\ngini = 0.43\nsamples = 192\nvalue = [132, 60]\nclass = y[0]", fillcolor="#f1ba93"] ;
394 -> 395 ;
396 [label="Income <= 123.5\ngini = 0.468\nsamples = 67\nvalue = [42, 25]\nclass = y[0]", fillcolor="#f4ccaf"] ;
395 -> 396 ;
397 [label="Age <= 31.5\ngini = 0.491\nsamples = 51\nvalue = [29, 22]\nclass = y[0]", fillcolor="#f9e1cf"] ;
396 -> 397 ;
398 [label="Income <= 118.5\ngini = 0.42\nsamples = 30\nvalue = [21, 9]\nclass = y[0]", fillcolor="#f0b78e"] ;
397 -> 398 ;
399 [label="Income <= 116.5\ngini = 0.5\nsamples = 12\nvalue = [6, 6]\nclass = y[0]", fillcolor="#ffffff"] ;
398 -> 399 ;
400 [label="Age <= 30.5\ngini = 0.375\nsamples = 8\nvalue = [6, 2]\nclass = y[0]", fillcolor="#eeab7b"] ;
399 -> 400 ;
401 [label="Age <= 29.5\ngini = 0.444\nsamples = 6\nvalue = [4, 2]\nclass = y[0]", fillcolor="#f2c09c"] ;
400 -> 401 ;
402 [label="Income <= 114.5\ngini = 0.32\nsamples = 5\nvalue = [4, 1]\nclass = y[0]", fillcolor="#eca06a"] ;
401 -> 402 ;
403 [label="gini = 0.0\nsamples = 2\nvalue = [2, 0]\nclass = y[0]", fillcolor="#e58139"] ;
402 -> 403 ;
404 [label="Age <= 28.5\ngini = 0.444\nsamples = 3\nvalue = [2, 1]\nclass = y[0]", fillcolor="#f2c09c"] ;
402 -> 404 ;
405 [label="gini = 0.5\nsamples = 2\nvalue = [1, 1]\nclass = y[0]", fillcolor="#ffffff"] ;
404 -> 405 ;
406 [label="gini = 0.0\nsamples = 1\nvalue = [1, 0]\nclass = y[0]", fillcolor="#e58139"] ;
404 -> 406 ;
407 [label="gini = 0.0\nsamples = 1\nvalue = [0, 1]\nclass = y[1]", fillcolor="#399de5"] ;
401 -> 407 ;
408 [label="gini = 0.0\nsamples = 2\nvalue = [2, 0]\nclass = y[0]", fillcolor="#e58139"] ;
400 -> 408 ;
409 [label="gini = 0.0\nsamples = 4\nvalue = [0, 4]\nclass = y[1]", fillcolor="#399de5"] ;
399 -> 409 ;
410 [label="Age <= 28.5\ngini = 0.278\nsamples = 18\nvalue = [15, 3]\nclass = y[0]", fillcolor="#ea9a61"] ;
398 -> 410 ;
411 [label="gini = 0.0\nsamples = 7\nvalue = [7, 0]\nclass = y[0]", fillcolor="#e58139"] ;
410 -> 411 ;
412 [label="Income <= 120.5\ngini = 0.397\nsamples = 11\nvalue = [8, 3]\nclass = y[0]", fillcolor="#efb083"] ;
410 -> 412 ;
413 [label="gini = 0.0\nsamples = 1\nvalue = [0, 1]\nclass = y[1]", fillcolor="#399de5"] ;
412 -> 413 ;
414 [label="Income <= 121.5\ngini = 0.32\nsamples = 10\nvalue = [8, 2]\nclass = y[0]", fillcolor="#eca06a"] ;
412 -> 414 ;
415 [label="gini = 0.0\nsamples = 5\nvalue = [5, 0]\nclass = y[0]", fillcolor="#e58139"] ;
414 -> 415 ;
416 [label="Age <= 29.5\ngini = 0.48\nsamples = 5\nvalue = [3, 2]\nclass = y[0]", fillcolor="#f6d5bd"] ;
414 -> 416 ;
417 [label="Income <= 122.5\ngini = 0.444\nsamples = 3\nvalue = [1, 2]\nclass = y[1]", fillcolor="#9ccef2"] ;
416 -> 417 ;
418 [label="gini = 0.0\nsamples = 1\nvalue = [0, 1]\nclass = y[1]", fillcolor="#399de5"] ;
417 -> 418 ;
419 [label="gini = 0.5\nsamples = 2\nvalue = [1, 1]\nclass = y[0]", fillcolor="#ffffff"] ;
417 -> 419 ;
420 [label="gini = 0.0\nsamples = 2\nvalue = [2, 0]\nclass = y[0]", fillcolor="#e58139"] ;
416 -> 420 ;
421 [label="Income <= 122.5\ngini = 0.472\nsamples = 21\nvalue = [8, 13]\nclass = y[1]", fillcolor="#b3d9f5"] ;
397 -> 421 ;
422 [label="Income <= 121.0\ngini = 0.498\nsamples = 15\nvalue = [8, 7]\nclass = y[0]", fillcolor="#fcefe6"] ;
421 -> 422 ;
423 [label="Income <= 118.5\ngini = 0.486\nsamples = 12\nvalue = [5, 7]\nclass = y[1]", fillcolor="#c6e3f8"] ;
422 -> 423 ;
424 [label="Age <= 36.5\ngini = 0.469\nsamples = 8\nvalue = [5, 3]\nclass = y[0]", fillcolor="#f5cdb0"] ;
423 -> 424 ;
425 [label="Income <= 114.5\ngini = 0.5\nsamples = 6\nvalue = [3, 3]\nclass = y[0]", fillcolor="#ffffff"] ;
424 -> 425 ;
426 [label="gini = 0.0\nsamples = 1\nvalue = [0, 1]\nclass = y[1]", fillcolor="#399de5"] ;
425 -> 426 ;
427 [label="Age <= 35.5\ngini = 0.48\nsamples = 5\nvalue = [3, 2]\nclass = y[0]", fillcolor="#f6d5bd"] ;
425 -> 427 ;
428 [label="Income <= 116.5\ngini = 0.375\nsamples = 4\nvalue = [3, 1]\nclass = y[0]", fillcolor="#eeab7b"] ;
427 -> 428 ;
429 [label="Age <= 32.5\ngini = 0.444\nsamples = 3\nvalue = [2, 1]\nclass = y[0]", fillcolor="#f2c09c"] ;
428 -> 429 ;
430 [label="gini = 0.0\nsamples = 1\nvalue = [1, 0]\nclass = y[0]", fillcolor="#e58139"] ;
429 -> 430 ;
431 [label="gini = 0.5\nsamples = 2\nvalue = [1, 1]\nclass = y[0]", fillcolor="#ffffff"] ;
429 -> 431 ;
432 [label="gini = 0.0\nsamples = 1\nvalue = [1, 0]\nclass = y[0]", fillcolor="#e58139"] ;
428 -> 432 ;
433 [label="gini = 0.0\nsamples = 1\nvalue = [0, 1]\nclass = y[1]", fillcolor="#399de5"] ;
427 -> 433 ;
434 [label="gini = 0.0\nsamples = 2\nvalue = [2, 0]\nclass = y[0]", fillcolor="#e58139"] ;
424 -> 434 ;
435 [label="gini = 0.0\nsamples = 4\nvalue = [0, 4]\nclass = y[1]", fillcolor="#399de5"] ;
423 -> 435 ;
436 [label="gini = 0.0\nsamples = 3\nvalue = [3, 0]\nclass = y[0]", fillcolor="#e58139"] ;
422 -> 436 ;
437 [label="gini = 0.0\nsamples = 6\nvalue = [0, 6]\nclass = y[1]", fillcolor="#399de5"] ;
421 -> 437 ;
438 [label="Age <= 30.5\ngini = 0.305\nsamples = 16\nvalue = [13, 3]\nclass = y[0]", fillcolor="#eb9e67"] ;
396 -> 438 ;
439 [label="Income <= 124.5\ngini = 0.444\nsamples = 6\nvalue = [4, 2]\nclass = y[0]", fillcolor="#f2c09c"] ;
438 -> 439 ;
440 [label="gini = 0.0\nsamples = 2\nvalue = [2, 0]\nclass = y[0]", fillcolor="#e58139"] ;
439 -> 440 ;
441 [label="Age <= 28.0\ngini = 0.5\nsamples = 4\nvalue = [2, 2]\nclass = y[0]", fillcolor="#ffffff"] ;
439 -> 441 ;
442 [label="gini = 0.0\nsamples = 1\nvalue = [1, 0]\nclass = y[0]", fillcolor="#e58139"] ;
441 -> 442 ;
443 [label="Age <= 29.5\ngini = 0.444\nsamples = 3\nvalue = [1, 2]\nclass = y[1]", fillcolor="#9ccef2"] ;
441 -> 443 ;
444 [label="gini = 0.5\nsamples = 2\nvalue = [1, 1]\nclass = y[0]", fillcolor="#ffffff"] ;
443 -> 444 ;
445 [label="gini = 0.0\nsamples = 1\nvalue = [0, 1]\nclass = y[1]", fillcolor="#399de5"] ;
443 -> 445 ;
446 [label="Age <= 32.5\ngini = 0.18\nsamples = 10\nvalue = [9, 1]\nclass = y[0]", fillcolor="#e88f4f"] ;
438 -> 446 ;
447 [label="gini = 0.0\nsamples = 5\nvalue = [5, 0]\nclass = y[0]", fillcolor="#e58139"] ;
446 -> 447 ;
448 [label="Age <= 34.0\ngini = 0.32\nsamples = 5\nvalue = [4, 1]\nclass = y[0]", fillcolor="#eca06a"] ;
446 -> 448 ;
449 [label="gini = 0.5\nsamples = 2\nvalue = [1, 1]\nclass = y[0]", fillcolor="#ffffff"] ;
448 -> 449 ;
450 [label="gini = 0.0\nsamples = 3\nvalue = [3, 0]\nclass = y[0]", fillcolor="#e58139"] ;
448 -> 450 ;
451 [label="Age <= 42.5\ngini = 0.403\nsamples = 125\nvalue = [90, 35]\nclass = y[0]", fillcolor="#efb286"] ;
395 -> 451 ;
452 [label="Income <= 119.5\ngini = 0.202\nsamples = 35\nvalue = [31, 4]\nclass = y[0]", fillcolor="#e89153"] ;
451 -> 452 ;
453 [label="Income <= 116.5\ngini = 0.308\nsamples = 21\nvalue = [17, 4]\nclass = y[0]", fillcolor="#eb9f68"] ;
452 -> 453 ;
454 [label="Income <= 114.5\ngini = 0.153\nsamples = 12\nvalue = [11, 1]\nclass = y[0]", fillcolor="#e78c4b"] ;
453 -> 454 ;
455 [label="Age <= 40.5\ngini = 0.278\nsamples = 6\nvalue = [5, 1]\nclass = y[0]", fillcolor="#ea9a61"] ;
454 -> 455 ;
456 [label="gini = 0.0\nsamples = 2\nvalue = [2, 0]\nclass = y[0]", fillcolor="#e58139"] ;
455 -> 456 ;
457 [label="Age <= 41.5\ngini = 0.375\nsamples = 4\nvalue = [3, 1]\nclass = y[0]", fillcolor="#eeab7b"] ;
455 -> 457 ;
458 [label="gini = 0.5\nsamples = 2\nvalue = [1, 1]\nclass = y[0]", fillcolor="#ffffff"] ;
457 -> 458 ;
459 [label="gini = 0.0\nsamples = 2\nvalue = [2, 0]\nclass = y[0]", fillcolor="#e58139"] ;
457 -> 459 ;
460 [label="gini = 0.0\nsamples = 6\nvalue = [6, 0]\nclass = y[0]", fillcolor="#e58139"] ;
454 -> 460 ;
461 [label="Age <= 40.5\ngini = 0.444\nsamples = 9\nvalue = [6, 3]\nclass = y[0]", fillcolor="#f2c09c"] ;
453 -> 461 ;
462 [label="Age <= 39.5\ngini = 0.49\nsamples = 7\nvalue = [4, 3]\nclass = y[0]", fillcolor="#f8e0ce"] ;
461 -> 462 ;
463 [label="Income <= 118.5\ngini = 0.444\nsamples = 6\nvalue = [4, 2]\nclass = y[0]", fillcolor="#f2c09c"] ;
462 -> 463 ;
464 [label="gini = 0.5\nsamples = 2\nvalue = [1, 1]\nclass = y[0]", fillcolor="#ffffff"] ;
463 -> 464 ;
465 [label="Age <= 38.5\ngini = 0.375\nsamples = 4\nvalue = [3, 1]\nclass = y[0]", fillcolor="#eeab7b"] ;
463 -> 465 ;
466 [label="gini = 0.444\nsamples = 3\nvalue = [2, 1]\nclass = y[0]", fillcolor="#f2c09c"] ;
465 -> 466 ;
467 [label="gini = 0.0\nsamples = 1\nvalue = [1, 0]\nclass = y[0]", fillcolor="#e58139"] ;
465 -> 467 ;
468 [label="gini = 0.0\nsamples = 1\nvalue = [0, 1]\nclass = y[1]", fillcolor="#399de5"] ;
462 -> 468 ;
469 [label="gini = 0.0\nsamples = 2\nvalue = [2, 0]\nclass = y[0]", fillcolor="#e58139"] ;
461 -> 469 ;
470 [label="gini = 0.0\nsamples = 14\nvalue = [14, 0]\nclass = y[0]", fillcolor="#e58139"] ;
452 -> 470 ;
471 [label="Income <= 116.5\ngini = 0.452\nsamples = 90\nvalue = [59, 31]\nclass = y[0]", fillcolor="#f3c3a1"] ;
451 -> 471 ;
472 [label="Income <= 114.5\ngini = 0.499\nsamples = 19\nvalue = [10, 9]\nclass = y[0]", fillcolor="#fcf2eb"] ;
471 -> 472 ;
473 [label="Age <= 58.5\ngini = 0.459\nsamples = 14\nvalue = [9, 5]\nclass = y[0]", fillcolor="#f3c7a7"] ;
472 -> 473 ;
474 [label="Age <= 44.0\ngini = 0.426\nsamples = 13\nvalue = [9, 4]\nclass = y[0]", fillcolor="#f1b991"] ;
473 -> 474 ;
475 [label="gini = 0.0\nsamples = 1\nvalue = [1, 0]\nclass = y[0]", fillcolor="#e58139"] ;
474 -> 475 ;
476 [label="Age <= 45.5\ngini = 0.444\nsamples = 12\nvalue = [8, 4]\nclass = y[0]", fillcolor="#f2c09c"] ;
474 -> 476 ;
477 [label="gini = 0.0\nsamples = 1\nvalue = [0, 1]\nclass = y[1]", fillcolor="#399de5"] ;
476 -> 477 ;
478 [label="Age <= 47.5\ngini = 0.397\nsamples = 11\nvalue = [8, 3]\nclass = y[0]", fillcolor="#efb083"] ;
476 -> 478 ;
479 [label="gini = 0.0\nsamples = 2\nvalue = [2, 0]\nclass = y[0]", fillcolor="#e58139"] ;
478 -> 479 ;
480 [label="Age <= 49.5\ngini = 0.444\nsamples = 9\nvalue = [6, 3]\nclass = y[0]", fillcolor="#f2c09c"] ;
478 -> 480 ;
481 [label="Age <= 48.5\ngini = 0.5\nsamples = 4\nvalue = [2, 2]\nclass = y[0]", fillcolor="#ffffff"] ;
480 -> 481 ;
482 [label="gini = 0.5\nsamples = 2\nvalue = [1, 1]\nclass = y[0]", fillcolor="#ffffff"] ;
481 -> 482 ;
483 [label="gini = 0.5\nsamples = 2\nvalue = [1, 1]\nclass = y[0]", fillcolor="#ffffff"] ;
481 -> 483 ;
484 [label="Age <= 54.5\ngini = 0.32\nsamples = 5\nvalue = [4, 1]\nclass = y[0]", fillcolor="#eca06a"] ;
480 -> 484 ;
485 [label="gini = 0.0\nsamples = 3\nvalue = [3, 0]\nclass = y[0]", fillcolor="#e58139"] ;
484 -> 485 ;
486 [label="Age <= 57.5\ngini = 0.5\nsamples = 2\nvalue = [1, 1]\nclass = y[0]", fillcolor="#ffffff"] ;
484 -> 486 ;
487 [label="gini = 0.0\nsamples = 1\nvalue = [0, 1]\nclass = y[1]", fillcolor="#399de5"] ;
486 -> 487 ;
488 [label="gini = 0.0\nsamples = 1\nvalue = [1, 0]\nclass = y[0]", fillcolor="#e58139"] ;
486 -> 488 ;
489 [label="gini = 0.0\nsamples = 1\nvalue = [0, 1]\nclass = y[1]", fillcolor="#399de5"] ;
473 -> 489 ;
490 [label="Age <= 45.5\ngini = 0.32\nsamples = 5\nvalue = [1, 4]\nclass = y[1]", fillcolor="#6ab6ec"] ;
472 -> 490 ;
491 [label="gini = 0.0\nsamples = 1\nvalue = [1, 0]\nclass = y[0]", fillcolor="#e58139"] ;
490 -> 491 ;
492 [label="gini = 0.0\nsamples = 4\nvalue = [0, 4]\nclass = y[1]", fillcolor="#399de5"] ;
490 -> 492 ;
493 [label="Age <= 47.5\ngini = 0.428\nsamples = 71\nvalue = [49, 22]\nclass = y[0]", fillcolor="#f1ba92"] ;
471 -> 493 ;
494 [label="Income <= 120.5\ngini = 0.487\nsamples = 31\nvalue = [18, 13]\nclass = y[0]", fillcolor="#f8dcc8"] ;
493 -> 494 ;
495 [label="gini = 0.0\nsamples = 6\nvalue = [6, 0]\nclass = y[0]", fillcolor="#e58139"] ;
494 -> 495 ;
496 [label="Age <= 45.5\ngini = 0.499\nsamples = 25\nvalue = [12, 13]\nclass = y[1]", fillcolor="#f0f7fd"] ;
494 -> 496 ;
497 [label="Income <= 122.5\ngini = 0.499\nsamples = 19\nvalue = [10, 9]\nclass = y[0]", fillcolor="#fcf2eb"] ;
496 -> 497 ;
498 [label="Income <= 121.5\ngini = 0.408\nsamples = 7\nvalue = [5, 2]\nclass = y[0]", fillcolor="#efb388"] ;
497 -> 498 ;
499 [label="Age <= 44.0\ngini = 0.5\nsamples = 2\nvalue = [1, 1]\nclass = y[0]", fillcolor="#ffffff"] ;
498 -> 499 ;
500 [label="gini = 0.0\nsamples = 1\nvalue = [0, 1]\nclass = y[1]", fillcolor="#399de5"] ;
499 -> 500 ;
501 [label="gini = 0.0\nsamples = 1\nvalue = [1, 0]\nclass = y[0]", fillcolor="#e58139"] ;
499 -> 501 ;
502 [label="Age <= 44.5\ngini = 0.32\nsamples = 5\nvalue = [4, 1]\nclass = y[0]", fillcolor="#eca06a"] ;
498 -> 502 ;
503 [label="gini = 0.0\nsamples = 4\nvalue = [4, 0]\nclass = y[0]", fillcolor="#e58139"] ;
502 -> 503 ;
504 [label="gini = 0.0\nsamples = 1\nvalue = [0, 1]\nclass = y[1]", fillcolor="#399de5"] ;
502 -> 504 ;
505 [label="Income <= 123.5\ngini = 0.486\nsamples = 12\nvalue = [5, 7]\nclass = y[1]", fillcolor="#c6e3f8"] ;
497 -> 505 ;
506 [label="gini = 0.0\nsamples = 2\nvalue = [0, 2]\nclass = y[1]", fillcolor="#399de5"] ;
505 -> 506 ;
507 [label="Income <= 124.5\ngini = 0.5\nsamples = 10\nvalue = [5, 5]\nclass = y[0]", fillcolor="#ffffff"] ;
505 -> 507 ;
508 [label="gini = 0.0\nsamples = 2\nvalue = [2, 0]\nclass = y[0]", fillcolor="#e58139"] ;
507 -> 508 ;
509 [label="Age <= 44.5\ngini = 0.469\nsamples = 8\nvalue = [3, 5]\nclass = y[1]", fillcolor="#b0d8f5"] ;
507 -> 509 ;
510 [label="Income <= 126.5\ngini = 0.32\nsamples = 5\nvalue = [1, 4]\nclass = y[1]", fillcolor="#6ab6ec"] ;
509 -> 510 ;
511 [label="gini = 0.0\nsamples = 2\nvalue = [0, 2]\nclass = y[1]", fillcolor="#399de5"] ;
510 -> 511 ;
512 [label="Age <= 43.5\ngini = 0.444\nsamples = 3\nvalue = [1, 2]\nclass = y[1]", fillcolor="#9ccef2"] ;
510 -> 512 ;
513 [label="gini = 0.5\nsamples = 2\nvalue = [1, 1]\nclass = y[0]", fillcolor="#ffffff"] ;
512 -> 513 ;
514 [label="gini = 0.0\nsamples = 1\nvalue = [0, 1]\nclass = y[1]", fillcolor="#399de5"] ;
512 -> 514 ;
515 [label="Income <= 126.5\ngini = 0.444\nsamples = 3\nvalue = [2, 1]\nclass = y[0]", fillcolor="#f2c09c"] ;
509 -> 515 ;
516 [label="gini = 0.0\nsamples = 1\nvalue = [1, 0]\nclass = y[0]", fillcolor="#e58139"] ;
515 -> 516 ;
517 [label="gini = 0.5\nsamples = 2\nvalue = [1, 1]\nclass = y[0]", fillcolor="#ffffff"] ;
515 -> 517 ;
518 [label="Age <= 46.5\ngini = 0.444\nsamples = 6\nvalue = [2, 4]\nclass = y[1]", fillcolor="#9ccef2"] ;
496 -> 518 ;
519 [label="gini = 0.0\nsamples = 2\nvalue = [0, 2]\nclass = y[1]", fillcolor="#399de5"] ;
518 -> 519 ;
520 [label="Income <= 122.5\ngini = 0.5\nsamples = 4\nvalue = [2, 2]\nclass = y[0]", fillcolor="#ffffff"] ;
518 -> 520 ;
521 [label="gini = 0.0\nsamples = 1\nvalue = [0, 1]\nclass = y[1]", fillcolor="#399de5"] ;
520 -> 521 ;
522 [label="Income <= 123.5\ngini = 0.444\nsamples = 3\nvalue = [2, 1]\nclass = y[0]", fillcolor="#f2c09c"] ;
520 -> 522 ;
523 [label="gini = 0.0\nsamples = 1\nvalue = [1, 0]\nclass = y[0]", fillcolor="#e58139"] ;
522 -> 523 ;
524 [label="Income <= 124.5\ngini = 0.5\nsamples = 2\nvalue = [1, 1]\nclass = y[0]", fillcolor="#ffffff"] ;
522 -> 524 ;
525 [label="gini = 0.0\nsamples = 1\nvalue = [0, 1]\nclass = y[1]", fillcolor="#399de5"] ;
524 -> 525 ;
526 [label="gini = 0.0\nsamples = 1\nvalue = [1, 0]\nclass = y[0]", fillcolor="#e58139"] ;
524 -> 526 ;
527 [label="Age <= 52.5\ngini = 0.349\nsamples = 40\nvalue = [31, 9]\nclass = y[0]", fillcolor="#eda672"] ;
493 -> 527 ;
528 [label="gini = 0.0\nsamples = 14\nvalue = [14, 0]\nclass = y[0]", fillcolor="#e58139"] ;
527 -> 528 ;
529 [label="Age <= 58.5\ngini = 0.453\nsamples = 26\nvalue = [17, 9]\nclass = y[0]", fillcolor="#f3c4a2"] ;
527 -> 529 ;
530 [label="Income <= 126.5\ngini = 0.476\nsamples = 23\nvalue = [14, 9]\nclass = y[0]", fillcolor="#f6d2b8"] ;
529 -> 530 ;
531 [label="Age <= 57.5\ngini = 0.49\nsamples = 21\nvalue = [12, 9]\nclass = y[0]", fillcolor="#f8e0ce"] ;
530 -> 531 ;
532 [label="Income <= 124.5\ngini = 0.475\nsamples = 18\nvalue = [11, 7]\nclass = y[0]", fillcolor="#f6d1b7"] ;
531 -> 532 ;
533 [label="Age <= 55.5\ngini = 0.457\nsamples = 17\nvalue = [11, 6]\nclass = y[0]", fillcolor="#f3c6a5"] ;
532 -> 533 ;
534 [label="Income <= 121.5\ngini = 0.5\nsamples = 10\nvalue = [5, 5]\nclass = y[0]", fillcolor="#ffffff"] ;
533 -> 534 ;
535 [label="Age <= 54.5\ngini = 0.469\nsamples = 8\nvalue = [3, 5]\nclass = y[1]", fillcolor="#b0d8f5"] ;
534 -> 535 ;
536 [label="Income <= 118.5\ngini = 0.49\nsamples = 7\nvalue = [3, 4]\nclass = y[1]", fillcolor="#cee6f8"] ;
535 -> 536 ;
537 [label="gini = 0.0\nsamples = 1\nvalue = [1, 0]\nclass = y[0]", fillcolor="#e58139"] ;
536 -> 537 ;
538 [label="Income <= 119.5\ngini = 0.444\nsamples = 6\nvalue = [2, 4]\nclass = y[1]", fillcolor="#9ccef2"] ;
536 -> 538 ;
539 [label="gini = 0.0\nsamples = 1\nvalue = [0, 1]\nclass = y[1]", fillcolor="#399de5"] ;
538 -> 539 ;
540 [label="Age <= 53.5\ngini = 0.48\nsamples = 5\nvalue = [2, 3]\nclass = y[1]", fillcolor="#bddef6"] ;
538 -> 540 ;
541 [label="gini = 0.0\nsamples = 1\nvalue = [0, 1]\nclass = y[1]", fillcolor="#399de5"] ;
540 -> 541 ;
542 [label="Income <= 120.5\ngini = 0.5\nsamples = 4\nvalue = [2, 2]\nclass = y[0]", fillcolor="#ffffff"] ;
540 -> 542 ;
543 [label="gini = 0.5\nsamples = 2\nvalue = [1, 1]\nclass = y[0]", fillcolor="#ffffff"] ;
542 -> 543 ;
544 [label="gini = 0.5\nsamples = 2\nvalue = [1, 1]\nclass = y[0]", fillcolor="#ffffff"] ;
542 -> 544 ;
545 [label="gini = 0.0\nsamples = 1\nvalue = [0, 1]\nclass = y[1]", fillcolor="#399de5"] ;
535 -> 545 ;
546 [label="gini = 0.0\nsamples = 2\nvalue = [2, 0]\nclass = y[0]", fillcolor="#e58139"] ;
534 -> 546 ;
547 [label="Income <= 123.0\ngini = 0.245\nsamples = 7\nvalue = [6, 1]\nclass = y[0]", fillcolor="#e9965a"] ;
533 -> 547 ;
548 [label="gini = 0.0\nsamples = 6\nvalue = [6, 0]\nclass = y[0]", fillcolor="#e58139"] ;
547 -> 548 ;
549 [label="gini = 0.0\nsamples = 1\nvalue = [0, 1]\nclass = y[1]", fillcolor="#399de5"] ;
547 -> 549 ;
550 [label="gini = 0.0\nsamples = 1\nvalue = [0, 1]\nclass = y[1]", fillcolor="#399de5"] ;
532 -> 550 ;
551 [label="Income <= 123.5\ngini = 0.444\nsamples = 3\nvalue = [1, 2]\nclass = y[1]", fillcolor="#9ccef2"] ;
531 -> 551 ;
552 [label="gini = 0.0\nsamples = 2\nvalue = [0, 2]\nclass = y[1]", fillcolor="#399de5"] ;
551 -> 552 ;
553 [label="gini = 0.0\nsamples = 1\nvalue = [1, 0]\nclass = y[0]", fillcolor="#e58139"] ;
551 -> 553 ;
554 [label="gini = 0.0\nsamples = 2\nvalue = [2, 0]\nclass = y[0]", fillcolor="#e58139"] ;
530 -> 554 ;
555 [label="gini = 0.0\nsamples = 3\nvalue = [3, 0]\nclass = y[0]", fillcolor="#e58139"] ;
529 -> 555 ;
556 [label="Income <= 118.5\ngini = 0.208\nsamples = 34\nvalue = [30, 4]\nclass = y[0]", fillcolor="#e89253"] ;
394 -> 556 ;
557 [label="gini = 0.0\nsamples = 13\nvalue = [13, 0]\nclass = y[0]", fillcolor="#e58139"] ;
556 -> 557 ;
558 [label="Age <= 60.5\ngini = 0.308\nsamples = 21\nvalue = [17, 4]\nclass = y[0]", fillcolor="#eb9f68"] ;
556 -> 558 ;
559 [label="gini = 0.0\nsamples = 5\nvalue = [5, 0]\nclass = y[0]", fillcolor="#e58139"] ;
558 -> 559 ;
560 [label="Income <= 126.5\ngini = 0.375\nsamples = 16\nvalue = [12, 4]\nclass = y[0]", fillcolor="#eeab7b"] ;
558 -> 560 ;
561 [label="Income <= 124.5\ngini = 0.426\nsamples = 13\nvalue = [9, 4]\nclass = y[0]", fillcolor="#f1b991"] ;
560 -> 561 ;
562 [label="Age <= 64.5\ngini = 0.375\nsamples = 12\nvalue = [9, 3]\nclass = y[0]", fillcolor="#eeab7b"] ;
561 -> 562 ;
563 [label="Age <= 62.5\ngini = 0.42\nsamples = 10\nvalue = [7, 3]\nclass = y[0]", fillcolor="#f0b78e"] ;
562 -> 563 ;
564 [label="Income <= 120.5\ngini = 0.278\nsamples = 6\nvalue = [5, 1]\nclass = y[0]", fillcolor="#ea9a61"] ;
563 -> 564 ;
565 [label="Age <= 61.5\ngini = 0.5\nsamples = 2\nvalue = [1, 1]\nclass = y[0]", fillcolor="#ffffff"] ;
564 -> 565 ;
566 [label="gini = 0.0\nsamples = 1\nvalue = [0, 1]\nclass = y[1]", fillcolor="#399de5"] ;
565 -> 566 ;
567 [label="gini = 0.0\nsamples = 1\nvalue = [1, 0]\nclass = y[0]", fillcolor="#e58139"] ;
565 -> 567 ;
568 [label="gini = 0.0\nsamples = 4\nvalue = [4, 0]\nclass = y[0]", fillcolor="#e58139"] ;
564 -> 568 ;
569 [label="Income <= 120.5\ngini = 0.5\nsamples = 4\nvalue = [2, 2]\nclass = y[0]", fillcolor="#ffffff"] ;
563 -> 569 ;
570 [label="gini = 0.0\nsamples = 1\nvalue = [1, 0]\nclass = y[0]", fillcolor="#e58139"] ;
569 -> 570 ;
571 [label="Age <= 63.5\ngini = 0.444\nsamples = 3\nvalue = [1, 2]\nclass = y[1]", fillcolor="#9ccef2"] ;
569 -> 571 ;
572 [label="gini = 0.0\nsamples = 1\nvalue = [0, 1]\nclass = y[1]", fillcolor="#399de5"] ;
571 -> 572 ;
573 [label="Income <= 122.5\ngini = 0.5\nsamples = 2\nvalue = [1, 1]\nclass = y[0]", fillcolor="#ffffff"] ;
571 -> 573 ;
574 [label="gini = 0.0\nsamples = 1\nvalue = [0, 1]\nclass = y[1]", fillcolor="#399de5"] ;
573 -> 574 ;
575 [label="gini = 0.0\nsamples = 1\nvalue = [1, 0]\nclass = y[0]", fillcolor="#e58139"] ;
573 -> 575 ;
576 [label="gini = 0.0\nsamples = 2\nvalue = [2, 0]\nclass = y[0]", fillcolor="#e58139"] ;
562 -> 576 ;
577 [label="gini = 0.0\nsamples = 1\nvalue = [0, 1]\nclass = y[1]", fillcolor="#399de5"] ;
561 -> 577 ;
578 [label="gini = 0.0\nsamples = 3\nvalue = [3, 0]\nclass = y[0]", fillcolor="#e58139"] ;
560 -> 578 ;
579 [label="Income <= 136.5\ngini = 0.472\nsamples = 439\nvalue = [271, 168]\nclass = y[0]", fillcolor="#f5cfb4"] ;
393 -> 579 ;
580 [label="Age <= 27.5\ngini = 0.495\nsamples = 129\nvalue = [71, 58]\nclass = y[0]", fillcolor="#fae8db"] ;
579 -> 580 ;
581 [label="Income <= 129.5\ngini = 0.346\nsamples = 9\nvalue = [2, 7]\nclass = y[1]", fillcolor="#72b9ec"] ;
580 -> 581 ;
582 [label="Age <= 26.5\ngini = 0.5\nsamples = 2\nvalue = [1, 1]\nclass = y[0]", fillcolor="#ffffff"] ;
581 -> 582 ;
583 [label="gini = 0.0\nsamples = 1\nvalue = [0, 1]\nclass = y[1]", fillcolor="#399de5"] ;
582 -> 583 ;
584 [label="gini = 0.0\nsamples = 1\nvalue = [1, 0]\nclass = y[0]", fillcolor="#e58139"] ;
582 -> 584 ;
585 [label="Income <= 134.5\ngini = 0.245\nsamples = 7\nvalue = [1, 6]\nclass = y[1]", fillcolor="#5aade9"] ;
581 -> 585 ;
586 [label="gini = 0.0\nsamples = 5\nvalue = [0, 5]\nclass = y[1]", fillcolor="#399de5"] ;
585 -> 586 ;
587 [label="Age <= 26.5\ngini = 0.5\nsamples = 2\nvalue = [1, 1]\nclass = y[0]", fillcolor="#ffffff"] ;
585 -> 587 ;
588 [label="gini = 0.0\nsamples = 1\nvalue = [1, 0]\nclass = y[0]", fillcolor="#e58139"] ;
587 -> 588 ;
589 [label="gini = 0.0\nsamples = 1\nvalue = [0, 1]\nclass = y[1]", fillcolor="#399de5"] ;
587 -> 589 ;
590 [label="Income <= 134.5\ngini = 0.489\nsamples = 120\nvalue = [69, 51]\nclass = y[0]", fillcolor="#f8decb"] ;
580 -> 590 ;
591 [label="Age <= 29.5\ngini = 0.478\nsamples = 106\nvalue = [64, 42]\nclass = y[0]", fillcolor="#f6d4bb"] ;
590 -> 591 ;
592 [label="Income <= 133.5\ngini = 0.278\nsamples = 6\nvalue = [5, 1]\nclass = y[0]", fillcolor="#ea9a61"] ;
591 -> 592 ;
593 [label="gini = 0.0\nsamples = 3\nvalue = [3, 0]\nclass = y[0]", fillcolor="#e58139"] ;
592 -> 593 ;
594 [label="Age <= 28.5\ngini = 0.444\nsamples = 3\nvalue = [2, 1]\nclass = y[0]", fillcolor="#f2c09c"] ;
592 -> 594 ;
595 [label="gini = 0.0\nsamples = 1\nvalue = [1, 0]\nclass = y[0]", fillcolor="#e58139"] ;
594 -> 595 ;
596 [label="gini = 0.5\nsamples = 2\nvalue = [1, 1]\nclass = y[0]", fillcolor="#ffffff"] ;
594 -> 596 ;
597 [label="Age <= 33.5\ngini = 0.484\nsamples = 100\nvalue = [59, 41]\nclass = y[0]", fillcolor="#f7d9c3"] ;
591 -> 597 ;
598 [label="Income <= 131.5\ngini = 0.486\nsamples = 12\nvalue = [5, 7]\nclass = y[1]", fillcolor="#c6e3f8"] ;
597 -> 598 ;
599 [label="gini = 0.0\nsamples = 5\nvalue = [0, 5]\nclass = y[1]", fillcolor="#399de5"] ;
598 -> 599 ;
600 [label="Income <= 133.5\ngini = 0.408\nsamples = 7\nvalue = [5, 2]\nclass = y[0]", fillcolor="#efb388"] ;
598 -> 600 ;
601 [label="Age <= 32.5\ngini = 0.5\nsamples = 4\nvalue = [2, 2]\nclass = y[0]", fillcolor="#ffffff"] ;
600 -> 601 ;
602 [label="Income <= 132.5\ngini = 0.444\nsamples = 3\nvalue = [1, 2]\nclass = y[1]", fillcolor="#9ccef2"] ;
601 -> 602 ;
603 [label="Age <= 31.5\ngini = 0.5\nsamples = 2\nvalue = [1, 1]\nclass = y[0]", fillcolor="#ffffff"] ;
602 -> 603 ;
604 [label="gini = 0.0\nsamples = 1\nvalue = [1, 0]\nclass = y[0]", fillcolor="#e58139"] ;
603 -> 604 ;
605 [label="gini = 0.0\nsamples = 1\nvalue = [0, 1]\nclass = y[1]", fillcolor="#399de5"] ;
603 -> 605 ;
606 [label="gini = 0.0\nsamples = 1\nvalue = [0, 1]\nclass = y[1]", fillcolor="#399de5"] ;
602 -> 606 ;
607 [label="gini = 0.0\nsamples = 1\nvalue = [1, 0]\nclass = y[0]", fillcolor="#e58139"] ;
601 -> 607 ;
608 [label="gini = 0.0\nsamples = 3\nvalue = [3, 0]\nclass = y[0]", fillcolor="#e58139"] ;
600 -> 608 ;
609 [label="Age <= 34.5\ngini = 0.474\nsamples = 88\nvalue = [54, 34]\nclass = y[0]", fillcolor="#f5d0b6"] ;
597 -> 609 ;
610 [label="gini = 0.0\nsamples = 4\nvalue = [4, 0]\nclass = y[0]", fillcolor="#e58139"] ;
609 -> 610 ;
611 [label="Age <= 38.5\ngini = 0.482\nsamples = 84\nvalue = [50, 34]\nclass = y[0]", fillcolor="#f7d7c0"] ;
609 -> 611 ;
612 [label="Income <= 131.5\ngini = 0.469\nsamples = 8\nvalue = [3, 5]\nclass = y[1]", fillcolor="#b0d8f5"] ;
611 -> 612 ;
613 [label="gini = 0.0\nsamples = 5\nvalue = [0, 5]\nclass = y[1]", fillcolor="#399de5"] ;
612 -> 613 ;
614 [label="gini = 0.0\nsamples = 3\nvalue = [3, 0]\nclass = y[0]", fillcolor="#e58139"] ;
612 -> 614 ;
615 [label="Income <= 129.5\ngini = 0.472\nsamples = 76\nvalue = [47, 29]\nclass = y[0]", fillcolor="#f5cfb3"] ;
611 -> 615 ;
616 [label="Age <= 40.5\ngini = 0.231\nsamples = 15\nvalue = [13, 2]\nclass = y[0]", fillcolor="#e99457"] ;
615 -> 616 ;
617 [label="Age <= 39.5\ngini = 0.5\nsamples = 2\nvalue = [1, 1]\nclass = y[0]", fillcolor="#ffffff"] ;
616 -> 617 ;
618 [label="gini = 0.0\nsamples = 1\nvalue = [1, 0]\nclass = y[0]", fillcolor="#e58139"] ;
617 -> 618 ;
619 [label="gini = 0.0\nsamples = 1\nvalue = [0, 1]\nclass = y[1]", fillcolor="#399de5"] ;
617 -> 619 ;
620 [label="Age <= 55.0\ngini = 0.142\nsamples = 13\nvalue = [12, 1]\nclass = y[0]", fillcolor="#e78c49"] ;
616 -> 620 ;
621 [label="Age <= 51.5\ngini = 0.278\nsamples = 6\nvalue = [5, 1]\nclass = y[0]", fillcolor="#ea9a61"] ;
620 -> 621 ;
622 [label="gini = 0.0\nsamples = 5\nvalue = [5, 0]\nclass = y[0]", fillcolor="#e58139"] ;
621 -> 622 ;
623 [label="gini = 0.0\nsamples = 1\nvalue = [0, 1]\nclass = y[1]", fillcolor="#399de5"] ;
621 -> 623 ;
624 [label="gini = 0.0\nsamples = 7\nvalue = [7, 0]\nclass = y[0]", fillcolor="#e58139"] ;
620 -> 624 ;
625 [label="Age <= 62.5\ngini = 0.493\nsamples = 61\nvalue = [34, 27]\nclass = y[0]", fillcolor="#fae5d6"] ;
615 -> 625 ;
626 [label="Age <= 42.5\ngini = 0.48\nsamples = 55\nvalue = [33, 22]\nclass = y[0]", fillcolor="#f6d5bd"] ;
625 -> 626 ;
627 [label="gini = 0.0\nsamples = 3\nvalue = [3, 0]\nclass = y[0]", fillcolor="#e58139"] ;
626 -> 627 ;
628 [label="Age <= 45.5\ngini = 0.488\nsamples = 52\nvalue = [30, 22]\nclass = y[0]", fillcolor="#f8ddca"] ;
626 -> 628 ;
629 [label="Age <= 43.5\ngini = 0.42\nsamples = 10\nvalue = [3, 7]\nclass = y[1]", fillcolor="#8ec7f0"] ;
628 -> 629 ;
630 [label="Income <= 131.0\ngini = 0.5\nsamples = 2\nvalue = [1, 1]\nclass = y[0]", fillcolor="#ffffff"] ;
629 -> 630 ;
631 [label="gini = 0.0\nsamples = 1\nvalue = [0, 1]\nclass = y[1]", fillcolor="#399de5"] ;
630 -> 631 ;
632 [label="gini = 0.0\nsamples = 1\nvalue = [1, 0]\nclass = y[0]", fillcolor="#e58139"] ;
630 -> 632 ;
633 [label="Income <= 130.5\ngini = 0.375\nsamples = 8\nvalue = [2, 6]\nclass = y[1]", fillcolor="#7bbeee"] ;
629 -> 633 ;
634 [label="gini = 0.5\nsamples = 2\nvalue = [1, 1]\nclass = y[0]", fillcolor="#ffffff"] ;
633 -> 634 ;
635 [label="Income <= 133.5\ngini = 0.278\nsamples = 6\nvalue = [1, 5]\nclass = y[1]", fillcolor="#61b1ea"] ;
633 -> 635 ;
636 [label="gini = 0.0\nsamples = 4\nvalue = [0, 4]\nclass = y[1]", fillcolor="#399de5"] ;
635 -> 636 ;
637 [label="gini = 0.5\nsamples = 2\nvalue = [1, 1]\nclass = y[0]", fillcolor="#ffffff"] ;
635 -> 637 ;
638 [label="Age <= 47.5\ngini = 0.459\nsamples = 42\nvalue = [27, 15]\nclass = y[0]", fillcolor="#f3c7a7"] ;
628 -> 638 ;
639 [label="gini = 0.0\nsamples = 5\nvalue = [5, 0]\nclass = y[0]", fillcolor="#e58139"] ;
638 -> 639 ;
640 [label="Age <= 57.5\ngini = 0.482\nsamples = 37\nvalue = [22, 15]\nclass = y[0]", fillcolor="#f7d7c0"] ;
638 -> 640 ;
641 [label="Age <= 53.5\ngini = 0.499\nsamples = 27\nvalue = [14, 13]\nclass = y[0]", fillcolor="#fdf6f1"] ;
640 -> 641 ;
642 [label="Income <= 131.0\ngini = 0.444\nsamples = 15\nvalue = [10, 5]\nclass = y[0]", fillcolor="#f2c09c"] ;
641 -> 642 ;
643 [label="Age <= 49.5\ngini = 0.5\nsamples = 4\nvalue = [2, 2]\nclass = y[0]", fillcolor="#ffffff"] ;
642 -> 643 ;
644 [label="gini = 0.0\nsamples = 1\nvalue = [0, 1]\nclass = y[1]", fillcolor="#399de5"] ;
643 -> 644 ;
645 [label="gini = 0.444\nsamples = 3\nvalue = [2, 1]\nclass = y[0]", fillcolor="#f2c09c"] ;
643 -> 645 ;
646 [label="Income <= 132.5\ngini = 0.397\nsamples = 11\nvalue = [8, 3]\nclass = y[0]", fillcolor="#efb083"] ;
642 -> 646 ;
647 [label="gini = 0.0\nsamples = 3\nvalue = [3, 0]\nclass = y[0]", fillcolor="#e58139"] ;
646 -> 647 ;
648 [label="Age <= 49.5\ngini = 0.469\nsamples = 8\nvalue = [5, 3]\nclass = y[0]", fillcolor="#f5cdb0"] ;
646 -> 648 ;
649 [label="Age <= 48.5\ngini = 0.32\nsamples = 5\nvalue = [4, 1]\nclass = y[0]", fillcolor="#eca06a"] ;
648 -> 649 ;
650 [label="Income <= 133.5\ngini = 0.444\nsamples = 3\nvalue = [2, 1]\nclass = y[0]", fillcolor="#f2c09c"] ;
649 -> 650 ;
651 [label="gini = 0.5\nsamples = 2\nvalue = [1, 1]\nclass = y[0]", fillcolor="#ffffff"] ;
650 -> 651 ;
652 [label="gini = 0.0\nsamples = 1\nvalue = [1, 0]\nclass = y[0]", fillcolor="#e58139"] ;
650 -> 652 ;
653 [label="gini = 0.0\nsamples = 2\nvalue = [2, 0]\nclass = y[0]", fillcolor="#e58139"] ;
649 -> 653 ;
654 [label="Income <= 133.5\ngini = 0.444\nsamples = 3\nvalue = [1, 2]\nclass = y[1]", fillcolor="#9ccef2"] ;
648 -> 654 ;
655 [label="Age <= 50.5\ngini = 0.5\nsamples = 2\nvalue = [1, 1]\nclass = y[0]", fillcolor="#ffffff"] ;
654 -> 655 ;
656 [label="gini = 0.0\nsamples = 1\nvalue = [0, 1]\nclass = y[1]", fillcolor="#399de5"] ;
655 -> 656 ;
657 [label="gini = 0.0\nsamples = 1\nvalue = [1, 0]\nclass = y[0]", fillcolor="#e58139"] ;
655 -> 657 ;
658 [label="gini = 0.0\nsamples = 1\nvalue = [0, 1]\nclass = y[1]", fillcolor="#399de5"] ;
654 -> 658 ;
659 [label="Age <= 54.5\ngini = 0.444\nsamples = 12\nvalue = [4, 8]\nclass = y[1]", fillcolor="#9ccef2"] ;
641 -> 659 ;
660 [label="gini = 0.0\nsamples = 2\nvalue = [0, 2]\nclass = y[1]", fillcolor="#399de5"] ;
659 -> 660 ;
661 [label="Income <= 130.5\ngini = 0.48\nsamples = 10\nvalue = [4, 6]\nclass = y[1]", fillcolor="#bddef6"] ;
659 -> 661 ;
662 [label="gini = 0.0\nsamples = 1\nvalue = [0, 1]\nclass = y[1]", fillcolor="#399de5"] ;
661 -> 662 ;
663 [label="Income <= 131.5\ngini = 0.494\nsamples = 9\nvalue = [4, 5]\nclass = y[1]", fillcolor="#d7ebfa"] ;
661 -> 663 ;
664 [label="Age <= 56.5\ngini = 0.5\nsamples = 6\nvalue = [3, 3]\nclass = y[0]", fillcolor="#ffffff"] ;
663 -> 664 ;
665 [label="Age <= 55.5\ngini = 0.444\nsamples = 3\nvalue = [1, 2]\nclass = y[1]", fillcolor="#9ccef2"] ;
664 -> 665 ;
666 [label="gini = 0.5\nsamples = 2\nvalue = [1, 1]\nclass = y[0]", fillcolor="#ffffff"] ;
665 -> 666 ;
667 [label="gini = 0.0\nsamples = 1\nvalue = [0, 1]\nclass = y[1]", fillcolor="#399de5"] ;
665 -> 667 ;
668 [label="gini = 0.444\nsamples = 3\nvalue = [2, 1]\nclass = y[0]", fillcolor="#f2c09c"] ;
664 -> 668 ;
669 [label="Age <= 56.0\ngini = 0.444\nsamples = 3\nvalue = [1, 2]\nclass = y[1]", fillcolor="#9ccef2"] ;
663 -> 669 ;
670 [label="Income <= 133.0\ngini = 0.5\nsamples = 2\nvalue = [1, 1]\nclass = y[0]", fillcolor="#ffffff"] ;
669 -> 670 ;
671 [label="gini = 0.0\nsamples = 1\nvalue = [0, 1]\nclass = y[1]", fillcolor="#399de5"] ;
670 -> 671 ;
672 [label="gini = 0.0\nsamples = 1\nvalue = [1, 0]\nclass = y[0]", fillcolor="#e58139"] ;
670 -> 672 ;
673 [label="gini = 0.0\nsamples = 1\nvalue = [0, 1]\nclass = y[1]", fillcolor="#399de5"] ;
669 -> 673 ;
674 [label="Income <= 130.5\ngini = 0.32\nsamples = 10\nvalue = [8, 2]\nclass = y[0]", fillcolor="#eca06a"] ;
640 -> 674 ;
675 [label="Age <= 59.0\ngini = 0.5\nsamples = 4\nvalue = [2, 2]\nclass = y[0]", fillcolor="#ffffff"] ;
674 -> 675 ;
676 [label="gini = 0.0\nsamples = 1\nvalue = [1, 0]\nclass = y[0]", fillcolor="#e58139"] ;
675 -> 676 ;
677 [label="Age <= 60.5\ngini = 0.444\nsamples = 3\nvalue = [1, 2]\nclass = y[1]", fillcolor="#9ccef2"] ;
675 -> 677 ;
678 [label="gini = 0.0\nsamples = 1\nvalue = [0, 1]\nclass = y[1]", fillcolor="#399de5"] ;
677 -> 678 ;
679 [label="gini = 0.5\nsamples = 2\nvalue = [1, 1]\nclass = y[0]", fillcolor="#ffffff"] ;
677 -> 679 ;
680 [label="gini = 0.0\nsamples = 6\nvalue = [6, 0]\nclass = y[0]", fillcolor="#e58139"] ;
674 -> 680 ;
681 [label="Income <= 131.5\ngini = 0.278\nsamples = 6\nvalue = [1, 5]\nclass = y[1]", fillcolor="#61b1ea"] ;
625 -> 681 ;
682 [label="Age <= 63.5\ngini = 0.5\nsamples = 2\nvalue = [1, 1]\nclass = y[0]", fillcolor="#ffffff"] ;
681 -> 682 ;
683 [label="gini = 0.0\nsamples = 1\nvalue = [0, 1]\nclass = y[1]", fillcolor="#399de5"] ;
682 -> 683 ;
684 [label="gini = 0.0\nsamples = 1\nvalue = [1, 0]\nclass = y[0]", fillcolor="#e58139"] ;
682 -> 684 ;
685 [label="gini = 0.0\nsamples = 4\nvalue = [0, 4]\nclass = y[1]", fillcolor="#399de5"] ;
681 -> 685 ;
686 [label="Age <= 54.5\ngini = 0.459\nsamples = 14\nvalue = [5, 9]\nclass = y[1]", fillcolor="#a7d3f3"] ;
590 -> 686 ;
687 [label="Age <= 28.5\ngini = 0.5\nsamples = 10\nvalue = [5, 5]\nclass = y[0]", fillcolor="#ffffff"] ;
686 -> 687 ;
688 [label="gini = 0.0\nsamples = 1\nvalue = [1, 0]\nclass = y[0]", fillcolor="#e58139"] ;
687 -> 688 ;
689 [label="Age <= 51.0\ngini = 0.494\nsamples = 9\nvalue = [4, 5]\nclass = y[1]", fillcolor="#d7ebfa"] ;
687 -> 689 ;
690 [label="Age <= 49.5\ngini = 0.469\nsamples = 8\nvalue = [3, 5]\nclass = y[1]", fillcolor="#b0d8f5"] ;
689 -> 690 ;
691 [label="Age <= 47.5\ngini = 0.49\nsamples = 7\nvalue = [3, 4]\nclass = y[1]", fillcolor="#cee6f8"] ;
690 -> 691 ;
692 [label="Age <= 44.0\ngini = 0.444\nsamples = 6\nvalue = [2, 4]\nclass = y[1]", fillcolor="#9ccef2"] ;
691 -> 692 ;
693 [label="Age <= 38.5\ngini = 0.48\nsamples = 5\nvalue = [2, 3]\nclass = y[1]", fillcolor="#bddef6"] ;
692 -> 693 ;
694 [label="Age <= 30.0\ngini = 0.375\nsamples = 4\nvalue = [1, 3]\nclass = y[1]", fillcolor="#7bbeee"] ;
693 -> 694 ;
695 [label="gini = 0.5\nsamples = 2\nvalue = [1, 1]\nclass = y[0]", fillcolor="#ffffff"] ;
694 -> 695 ;
696 [label="gini = 0.0\nsamples = 2\nvalue = [0, 2]\nclass = y[1]", fillcolor="#399de5"] ;
694 -> 696 ;
697 [label="gini = 0.0\nsamples = 1\nvalue = [1, 0]\nclass = y[0]", fillcolor="#e58139"] ;
693 -> 697 ;
698 [label="gini = 0.0\nsamples = 1\nvalue = [0, 1]\nclass = y[1]", fillcolor="#399de5"] ;
692 -> 698 ;
699 [label="gini = 0.0\nsamples = 1\nvalue = [1, 0]\nclass = y[0]", fillcolor="#e58139"] ;
691 -> 699 ;
700 [label="gini = 0.0\nsamples = 1\nvalue = [0, 1]\nclass = y[1]", fillcolor="#399de5"] ;
690 -> 700 ;
701 [label="gini = 0.0\nsamples = 1\nvalue = [1, 0]\nclass = y[0]", fillcolor="#e58139"] ;
689 -> 701 ;
702 [label="gini = 0.0\nsamples = 4\nvalue = [0, 4]\nclass = y[1]", fillcolor="#399de5"] ;
686 -> 702 ;
703 [label="Age <= 31.5\ngini = 0.458\nsamples = 310\nvalue = [200, 110]\nclass = y[0]", fillcolor="#f3c6a6"] ;
579 -> 703 ;
704 [label="Age <= 27.5\ngini = 0.355\nsamples = 39\nvalue = [30, 9]\nclass = y[0]", fillcolor="#eda774"] ;
703 -> 704 ;
705 [label="Income <= 145.0\ngini = 0.463\nsamples = 11\nvalue = [7, 4]\nclass = y[0]", fillcolor="#f4c9aa"] ;
704 -> 705 ;
706 [label="Income <= 139.0\ngini = 0.375\nsamples = 4\nvalue = [1, 3]\nclass = y[1]", fillcolor="#7bbeee"] ;
705 -> 706 ;
707 [label="gini = 0.0\nsamples = 1\nvalue = [1, 0]\nclass = y[0]", fillcolor="#e58139"] ;
706 -> 707 ;
708 [label="gini = 0.0\nsamples = 3\nvalue = [0, 3]\nclass = y[1]", fillcolor="#399de5"] ;
706 -> 708 ;
709 [label="Income <= 156.5\ngini = 0.245\nsamples = 7\nvalue = [6, 1]\nclass = y[0]", fillcolor="#e9965a"] ;
705 -> 709 ;
710 [label="gini = 0.0\nsamples = 5\nvalue = [5, 0]\nclass = y[0]", fillcolor="#e58139"] ;
709 -> 710 ;
711 [label="Income <= 159.5\ngini = 0.5\nsamples = 2\nvalue = [1, 1]\nclass = y[0]", fillcolor="#ffffff"] ;
709 -> 711 ;
712 [label="gini = 0.0\nsamples = 1\nvalue = [0, 1]\nclass = y[1]", fillcolor="#399de5"] ;
711 -> 712 ;
713 [label="gini = 0.0\nsamples = 1\nvalue = [1, 0]\nclass = y[0]", fillcolor="#e58139"] ;
711 -> 713 ;
714 [label="Income <= 141.5\ngini = 0.293\nsamples = 28\nvalue = [23, 5]\nclass = y[0]", fillcolor="#eb9c64"] ;
704 -> 714 ;
715 [label="gini = 0.0\nsamples = 7\nvalue = [7, 0]\nclass = y[0]", fillcolor="#e58139"] ;
714 -> 715 ;
716 [label="Income <= 148.5\ngini = 0.363\nsamples = 21\nvalue = [16, 5]\nclass = y[0]", fillcolor="#eda877"] ;
714 -> 716 ;
717 [label="Age <= 28.5\ngini = 0.5\nsamples = 4\nvalue = [2, 2]\nclass = y[0]", fillcolor="#ffffff"] ;
716 -> 717 ;
718 [label="gini = 0.0\nsamples = 1\nvalue = [1, 0]\nclass = y[0]", fillcolor="#e58139"] ;
717 -> 718 ;
719 [label="Age <= 30.5\ngini = 0.444\nsamples = 3\nvalue = [1, 2]\nclass = y[1]", fillcolor="#9ccef2"] ;
717 -> 719 ;
720 [label="gini = 0.0\nsamples = 2\nvalue = [0, 2]\nclass = y[1]", fillcolor="#399de5"] ;
719 -> 720 ;
721 [label="gini = 0.0\nsamples = 1\nvalue = [1, 0]\nclass = y[0]", fillcolor="#e58139"] ;
719 -> 721 ;
722 [label="Income <= 160.5\ngini = 0.291\nsamples = 17\nvalue = [14, 3]\nclass = y[0]", fillcolor="#eb9c63"] ;
716 -> 722 ;
723 [label="Income <= 149.5\ngini = 0.231\nsamples = 15\nvalue = [13, 2]\nclass = y[0]", fillcolor="#e99457"] ;
722 -> 723 ;
724 [label="gini = 0.0\nsamples = 4\nvalue = [4, 0]\nclass = y[0]", fillcolor="#e58139"] ;
723 -> 724 ;
725 [label="Income <= 151.5\ngini = 0.298\nsamples = 11\nvalue = [9, 2]\nclass = y[0]", fillcolor="#eb9d65"] ;
723 -> 725 ;
726 [label="Age <= 29.5\ngini = 0.5\nsamples = 2\nvalue = [1, 1]\nclass = y[0]", fillcolor="#ffffff"] ;
725 -> 726 ;
727 [label="gini = 0.0\nsamples = 1\nvalue = [1, 0]\nclass = y[0]", fillcolor="#e58139"] ;
726 -> 727 ;
728 [label="gini = 0.0\nsamples = 1\nvalue = [0, 1]\nclass = y[1]", fillcolor="#399de5"] ;
726 -> 728 ;
729 [label="Age <= 28.5\ngini = 0.198\nsamples = 9\nvalue = [8, 1]\nclass = y[0]", fillcolor="#e89152"] ;
725 -> 729 ;
730 [label="Income <= 157.0\ngini = 0.444\nsamples = 3\nvalue = [2, 1]\nclass = y[0]", fillcolor="#f2c09c"] ;
729 -> 730 ;
731 [label="gini = 0.5\nsamples = 2\nvalue = [1, 1]\nclass = y[0]", fillcolor="#ffffff"] ;
730 -> 731 ;
732 [label="gini = 0.0\nsamples = 1\nvalue = [1, 0]\nclass = y[0]", fillcolor="#e58139"] ;
730 -> 732 ;
733 [label="gini = 0.0\nsamples = 6\nvalue = [6, 0]\nclass = y[0]", fillcolor="#e58139"] ;
729 -> 733 ;
734 [label="Age <= 28.5\ngini = 0.5\nsamples = 2\nvalue = [1, 1]\nclass = y[0]", fillcolor="#ffffff"] ;
722 -> 734 ;
735 [label="gini = 0.0\nsamples = 1\nvalue = [0, 1]\nclass = y[1]", fillcolor="#399de5"] ;
734 -> 735 ;
736 [label="gini = 0.0\nsamples = 1\nvalue = [1, 0]\nclass = y[0]", fillcolor="#e58139"] ;
734 -> 736 ;
737 [label="Age <= 37.5\ngini = 0.468\nsamples = 271\nvalue = [170, 101]\nclass = y[0]", fillcolor="#f4ccaf"] ;
703 -> 737 ;
738 [label="Income <= 160.5\ngini = 0.5\nsamples = 42\nvalue = [21, 21]\nclass = y[0]", fillcolor="#ffffff"] ;
737 -> 738 ;
739 [label="Income <= 153.5\ngini = 0.497\nsamples = 39\nvalue = [18, 21]\nclass = y[1]", fillcolor="#e3f1fb"] ;
738 -> 739 ;
740 [label="Income <= 151.0\ngini = 0.499\nsamples = 29\nvalue = [15, 14]\nclass = y[0]", fillcolor="#fdf7f2"] ;
739 -> 740 ;
741 [label="Age <= 35.5\ngini = 0.486\nsamples = 24\nvalue = [10, 14]\nclass = y[1]", fillcolor="#c6e3f8"] ;
740 -> 741 ;
742 [label="Income <= 139.5\ngini = 0.5\nsamples = 20\nvalue = [10, 10]\nclass = y[0]", fillcolor="#ffffff"] ;
741 -> 742 ;
743 [label="Age <= 33.5\ngini = 0.32\nsamples = 5\nvalue = [4, 1]\nclass = y[0]", fillcolor="#eca06a"] ;
742 -> 743 ;
744 [label="gini = 0.5\nsamples = 2\nvalue = [1, 1]\nclass = y[0]", fillcolor="#ffffff"] ;
743 -> 744 ;
745 [label="gini = 0.0\nsamples = 3\nvalue = [3, 0]\nclass = y[0]", fillcolor="#e58139"] ;
743 -> 745 ;
746 [label="Income <= 146.5\ngini = 0.48\nsamples = 15\nvalue = [6, 9]\nclass = y[1]", fillcolor="#bddef6"] ;
742 -> 746 ;
747 [label="Income <= 142.5\ngini = 0.49\nsamples = 14\nvalue = [6, 8]\nclass = y[1]", fillcolor="#cee6f8"] ;
746 -> 747 ;
748 [label="Age <= 33.5\ngini = 0.444\nsamples = 9\nvalue = [3, 6]\nclass = y[1]", fillcolor="#9ccef2"] ;
747 -> 748 ;
749 [label="Age <= 32.5\ngini = 0.5\nsamples = 4\nvalue = [2, 2]\nclass = y[0]", fillcolor="#ffffff"] ;
748 -> 749 ;
750 [label="Income <= 140.5\ngini = 0.444\nsamples = 3\nvalue = [1, 2]\nclass = y[1]", fillcolor="#9ccef2"] ;
749 -> 750 ;
751 [label="gini = 0.0\nsamples = 1\nvalue = [0, 1]\nclass = y[1]", fillcolor="#399de5"] ;
750 -> 751 ;
752 [label="Income <= 141.5\ngini = 0.5\nsamples = 2\nvalue = [1, 1]\nclass = y[0]", fillcolor="#ffffff"] ;
750 -> 752 ;
753 [label="gini = 0.0\nsamples = 1\nvalue = [1, 0]\nclass = y[0]", fillcolor="#e58139"] ;
752 -> 753 ;
754 [label="gini = 0.0\nsamples = 1\nvalue = [0, 1]\nclass = y[1]", fillcolor="#399de5"] ;
752 -> 754 ;
755 [label="gini = 0.0\nsamples = 1\nvalue = [1, 0]\nclass = y[0]", fillcolor="#e58139"] ;
749 -> 755 ;
756 [label="Income <= 141.5\ngini = 0.32\nsamples = 5\nvalue = [1, 4]\nclass = y[1]", fillcolor="#6ab6ec"] ;
748 -> 756 ;
757 [label="gini = 0.0\nsamples = 3\nvalue = [0, 3]\nclass = y[1]", fillcolor="#399de5"] ;
756 -> 757 ;
758 [label="gini = 0.5\nsamples = 2\nvalue = [1, 1]\nclass = y[0]", fillcolor="#ffffff"] ;
756 -> 758 ;
759 [label="Age <= 32.5\ngini = 0.48\nsamples = 5\nvalue = [3, 2]\nclass = y[0]", fillcolor="#f6d5bd"] ;
747 -> 759 ;
760 [label="gini = 0.0\nsamples = 1\nvalue = [0, 1]\nclass = y[1]", fillcolor="#399de5"] ;
759 -> 760 ;
761 [label="Age <= 34.0\ngini = 0.375\nsamples = 4\nvalue = [3, 1]\nclass = y[0]", fillcolor="#eeab7b"] ;
759 -> 761 ;
762 [label="gini = 0.444\nsamples = 3\nvalue = [2, 1]\nclass = y[0]", fillcolor="#f2c09c"] ;
761 -> 762 ;
763 [label="gini = 0.0\nsamples = 1\nvalue = [1, 0]\nclass = y[0]", fillcolor="#e58139"] ;
761 -> 763 ;
764 [label="gini = 0.0\nsamples = 1\nvalue = [0, 1]\nclass = y[1]", fillcolor="#399de5"] ;
746 -> 764 ;
765 [label="gini = 0.0\nsamples = 4\nvalue = [0, 4]\nclass = y[1]", fillcolor="#399de5"] ;
741 -> 765 ;
766 [label="gini = 0.0\nsamples = 5\nvalue = [5, 0]\nclass = y[0]", fillcolor="#e58139"] ;
740 -> 766 ;
767 [label="Income <= 154.5\ngini = 0.42\nsamples = 10\nvalue = [3, 7]\nclass = y[1]", fillcolor="#8ec7f0"] ;
739 -> 767 ;
768 [label="gini = 0.0\nsamples = 2\nvalue = [0, 2]\nclass = y[1]", fillcolor="#399de5"] ;
767 -> 768 ;
769 [label="Age <= 33.5\ngini = 0.469\nsamples = 8\nvalue = [3, 5]\nclass = y[1]", fillcolor="#b0d8f5"] ;
767 -> 769 ;
770 [label="gini = 0.0\nsamples = 1\nvalue = [0, 1]\nclass = y[1]", fillcolor="#399de5"] ;
769 -> 770 ;
771 [label="Income <= 156.5\ngini = 0.49\nsamples = 7\nvalue = [3, 4]\nclass = y[1]", fillcolor="#cee6f8"] ;
769 -> 771 ;
772 [label="gini = 0.0\nsamples = 1\nvalue = [1, 0]\nclass = y[0]", fillcolor="#e58139"] ;
771 -> 772 ;
773 [label="Age <= 35.5\ngini = 0.444\nsamples = 6\nvalue = [2, 4]\nclass = y[1]", fillcolor="#9ccef2"] ;
771 -> 773 ;
774 [label="gini = 0.0\nsamples = 2\nvalue = [0, 2]\nclass = y[1]", fillcolor="#399de5"] ;
773 -> 774 ;
775 [label="Income <= 159.0\ngini = 0.5\nsamples = 4\nvalue = [2, 2]\nclass = y[0]", fillcolor="#ffffff"] ;
773 -> 775 ;
776 [label="Age <= 36.5\ngini = 0.444\nsamples = 3\nvalue = [1, 2]\nclass = y[1]", fillcolor="#9ccef2"] ;
775 -> 776 ;
777 [label="gini = 0.5\nsamples = 2\nvalue = [1, 1]\nclass = y[0]", fillcolor="#ffffff"] ;
776 -> 777 ;
778 [label="gini = 0.0\nsamples = 1\nvalue = [0, 1]\nclass = y[1]", fillcolor="#399de5"] ;
776 -> 778 ;
779 [label="gini = 0.0\nsamples = 1\nvalue = [1, 0]\nclass = y[0]", fillcolor="#e58139"] ;
775 -> 779 ;
780 [label="gini = 0.0\nsamples = 3\nvalue = [3, 0]\nclass = y[0]", fillcolor="#e58139"] ;
738 -> 780 ;
781 [label="Age <= 47.5\ngini = 0.455\nsamples = 229\nvalue = [149, 80]\nclass = y[0]", fillcolor="#f3c5a3"] ;
737 -> 781 ;
782 [label="Income <= 156.5\ngini = 0.404\nsamples = 96\nvalue = [69, 27]\nclass = y[0]", fillcolor="#efb286"] ;
781 -> 782 ;
783 [label="Age <= 43.5\ngini = 0.375\nsamples = 76\nvalue = [57, 19]\nclass = y[0]", fillcolor="#eeab7b"] ;
782 -> 783 ;
784 [label="Income <= 141.5\ngini = 0.434\nsamples = 44\nvalue = [30, 14]\nclass = y[0]", fillcolor="#f1bc95"] ;
783 -> 784 ;
785 [label="Age <= 42.5\ngini = 0.495\nsamples = 20\nvalue = [11, 9]\nclass = y[0]", fillcolor="#fae8db"] ;
784 -> 785 ;
786 [label="Age <= 41.5\ngini = 0.499\nsamples = 19\nvalue = [10, 9]\nclass = y[0]", fillcolor="#fcf2eb"] ;
785 -> 786 ;
787 [label="Age <= 39.5\ngini = 0.48\nsamples = 15\nvalue = [9, 6]\nclass = y[0]", fillcolor="#f6d5bd"] ;
786 -> 787 ;
788 [label="Age <= 38.5\ngini = 0.5\nsamples = 8\nvalue = [4, 4]\nclass = y[0]", fillcolor="#ffffff"] ;
787 -> 788 ;
789 [label="Income <= 139.0\ngini = 0.444\nsamples = 3\nvalue = [2, 1]\nclass = y[0]", fillcolor="#f2c09c"] ;
788 -> 789 ;
790 [label="gini = 0.0\nsamples = 1\nvalue = [1, 0]\nclass = y[0]", fillcolor="#e58139"] ;
789 -> 790 ;
791 [label="Income <= 140.5\ngini = 0.5\nsamples = 2\nvalue = [1, 1]\nclass = y[0]", fillcolor="#ffffff"] ;
789 -> 791 ;
792 [label="gini = 0.0\nsamples = 1\nvalue = [0, 1]\nclass = y[1]", fillcolor="#399de5"] ;
791 -> 792 ;
793 [label="gini = 0.0\nsamples = 1\nvalue = [1, 0]\nclass = y[0]", fillcolor="#e58139"] ;
791 -> 793 ;
794 [label="Income <= 138.5\ngini = 0.48\nsamples = 5\nvalue = [2, 3]\nclass = y[1]", fillcolor="#bddef6"] ;
788 -> 794 ;
795 [label="gini = 0.0\nsamples = 1\nvalue = [0, 1]\nclass = y[1]", fillcolor="#399de5"] ;
794 -> 795 ;
796 [label="Income <= 140.0\ngini = 0.5\nsamples = 4\nvalue = [2, 2]\nclass = y[0]", fillcolor="#ffffff"] ;
794 -> 796 ;
797 [label="gini = 0.5\nsamples = 2\nvalue = [1, 1]\nclass = y[0]", fillcolor="#ffffff"] ;
796 -> 797 ;
798 [label="gini = 0.5\nsamples = 2\nvalue = [1, 1]\nclass = y[0]", fillcolor="#ffffff"] ;
796 -> 798 ;
799 [label="Income <= 140.5\ngini = 0.408\nsamples = 7\nvalue = [5, 2]\nclass = y[0]", fillcolor="#efb388"] ;
787 -> 799 ;
800 [label="Income <= 139.5\ngini = 0.444\nsamples = 6\nvalue = [4, 2]\nclass = y[0]", fillcolor="#f2c09c"] ;
799 -> 800 ;
801 [label="Age <= 40.5\ngini = 0.375\nsamples = 4\nvalue = [3, 1]\nclass = y[0]", fillcolor="#eeab7b"] ;
800 -> 801 ;
802 [label="gini = 0.0\nsamples = 2\nvalue = [2, 0]\nclass = y[0]", fillcolor="#e58139"] ;
801 -> 802 ;
803 [label="Income <= 138.5\ngini = 0.5\nsamples = 2\nvalue = [1, 1]\nclass = y[0]", fillcolor="#ffffff"] ;
801 -> 803 ;
804 [label="gini = 0.0\nsamples = 1\nvalue = [0, 1]\nclass = y[1]", fillcolor="#399de5"] ;
803 -> 804 ;
805 [label="gini = 0.0\nsamples = 1\nvalue = [1, 0]\nclass = y[0]", fillcolor="#e58139"] ;
803 -> 805 ;
806 [label="Age <= 40.5\ngini = 0.5\nsamples = 2\nvalue = [1, 1]\nclass = y[0]", fillcolor="#ffffff"] ;
800 -> 806 ;
807 [label="gini = 0.0\nsamples = 1\nvalue = [0, 1]\nclass = y[1]", fillcolor="#399de5"] ;
806 -> 807 ;
808 [label="gini = 0.0\nsamples = 1\nvalue = [1, 0]\nclass = y[0]", fillcolor="#e58139"] ;
806 -> 808 ;
809 [label="gini = 0.0\nsamples = 1\nvalue = [1, 0]\nclass = y[0]", fillcolor="#e58139"] ;
799 -> 809 ;
810 [label="Income <= 140.0\ngini = 0.375\nsamples = 4\nvalue = [1, 3]\nclass = y[1]", fillcolor="#7bbeee"] ;
786 -> 810 ;
811 [label="gini = 0.0\nsamples = 1\nvalue = [0, 1]\nclass = y[1]", fillcolor="#399de5"] ;
810 -> 811 ;
812 [label="gini = 0.444\nsamples = 3\nvalue = [1, 2]\nclass = y[1]", fillcolor="#9ccef2"] ;
810 -> 812 ;
813 [label="gini = 0.0\nsamples = 1\nvalue = [1, 0]\nclass = y[0]", fillcolor="#e58139"] ;
785 -> 813 ;
814 [label="Income <= 150.5\ngini = 0.33\nsamples = 24\nvalue = [19, 5]\nclass = y[0]", fillcolor="#eca26d"] ;
784 -> 814 ;
815 [label="Age <= 40.5\ngini = 0.165\nsamples = 11\nvalue = [10, 1]\nclass = y[0]", fillcolor="#e88e4d"] ;
814 -> 815 ;
816 [label="gini = 0.0\nsamples = 5\nvalue = [5, 0]\nclass = y[0]", fillcolor="#e58139"] ;
815 -> 816 ;
817 [label="Age <= 41.5\ngini = 0.278\nsamples = 6\nvalue = [5, 1]\nclass = y[0]", fillcolor="#ea9a61"] ;
815 -> 817 ;
818 [label="gini = 0.0\nsamples = 1\nvalue = [0, 1]\nclass = y[1]", fillcolor="#399de5"] ;
817 -> 818 ;
819 [label="gini = 0.0\nsamples = 5\nvalue = [5, 0]\nclass = y[0]", fillcolor="#e58139"] ;
817 -> 819 ;
820 [label="Age <= 41.5\ngini = 0.426\nsamples = 13\nvalue = [9, 4]\nclass = y[0]", fillcolor="#f1b991"] ;
814 -> 820 ;
821 [label="Income <= 154.5\ngini = 0.219\nsamples = 8\nvalue = [7, 1]\nclass = y[0]", fillcolor="#e99355"] ;
820 -> 821 ;
822 [label="gini = 0.0\nsamples = 5\nvalue = [5, 0]\nclass = y[0]", fillcolor="#e58139"] ;
821 -> 822 ;
823 [label="Age <= 39.5\ngini = 0.444\nsamples = 3\nvalue = [2, 1]\nclass = y[0]", fillcolor="#f2c09c"] ;
821 -> 823 ;
824 [label="gini = 0.0\nsamples = 1\nvalue = [1, 0]\nclass = y[0]", fillcolor="#e58139"] ;
823 -> 824 ;
825 [label="Age <= 40.5\ngini = 0.5\nsamples = 2\nvalue = [1, 1]\nclass = y[0]", fillcolor="#ffffff"] ;
823 -> 825 ;
826 [label="gini = 0.0\nsamples = 1\nvalue = [0, 1]\nclass = y[1]", fillcolor="#399de5"] ;
825 -> 826 ;
827 [label="gini = 0.0\nsamples = 1\nvalue = [1, 0]\nclass = y[0]", fillcolor="#e58139"] ;
825 -> 827 ;
828 [label="Income <= 154.5\ngini = 0.48\nsamples = 5\nvalue = [2, 3]\nclass = y[1]", fillcolor="#bddef6"] ;
820 -> 828 ;
829 [label="Age <= 42.5\ngini = 0.375\nsamples = 4\nvalue = [1, 3]\nclass = y[1]", fillcolor="#7bbeee"] ;
828 -> 829 ;
830 [label="gini = 0.0\nsamples = 2\nvalue = [0, 2]\nclass = y[1]", fillcolor="#399de5"] ;
829 -> 830 ;
831 [label="Income <= 152.5\ngini = 0.5\nsamples = 2\nvalue = [1, 1]\nclass = y[0]", fillcolor="#ffffff"] ;
829 -> 831 ;
832 [label="gini = 0.0\nsamples = 1\nvalue = [0, 1]\nclass = y[1]", fillcolor="#399de5"] ;
831 -> 832 ;
833 [label="gini = 0.0\nsamples = 1\nvalue = [1, 0]\nclass = y[0]", fillcolor="#e58139"] ;
831 -> 833 ;
834 [label="gini = 0.0\nsamples = 1\nvalue = [1, 0]\nclass = y[0]", fillcolor="#e58139"] ;
828 -> 834 ;
835 [label="Income <= 141.5\ngini = 0.264\nsamples = 32\nvalue = [27, 5]\nclass = y[0]", fillcolor="#ea985e"] ;
783 -> 835 ;
836 [label="gini = 0.0\nsamples = 9\nvalue = [9, 0]\nclass = y[0]", fillcolor="#e58139"] ;
835 -> 836 ;
837 [label="Income <= 144.5\ngini = 0.34\nsamples = 23\nvalue = [18, 5]\nclass = y[0]", fillcolor="#eca470"] ;
835 -> 837 ;
838 [label="Age <= 45.5\ngini = 0.48\nsamples = 5\nvalue = [2, 3]\nclass = y[1]", fillcolor="#bddef6"] ;
837 -> 838 ;
839 [label="gini = 0.0\nsamples = 3\nvalue = [0, 3]\nclass = y[1]", fillcolor="#399de5"] ;
838 -> 839 ;
840 [label="gini = 0.0\nsamples = 2\nvalue = [2, 0]\nclass = y[0]", fillcolor="#e58139"] ;
838 -> 840 ;
841 [label="Age <= 46.5\ngini = 0.198\nsamples = 18\nvalue = [16, 2]\nclass = y[0]", fillcolor="#e89152"] ;
837 -> 841 ;
842 [label="Age <= 45.5\ngini = 0.117\nsamples = 16\nvalue = [15, 1]\nclass = y[0]", fillcolor="#e78946"] ;
841 -> 842 ;
843 [label="gini = 0.0\nsamples = 10\nvalue = [10, 0]\nclass = y[0]", fillcolor="#e58139"] ;
842 -> 843 ;
844 [label="Income <= 152.5\ngini = 0.278\nsamples = 6\nvalue = [5, 1]\nclass = y[0]", fillcolor="#ea9a61"] ;
842 -> 844 ;
845 [label="Income <= 148.5\ngini = 0.444\nsamples = 3\nvalue = [2, 1]\nclass = y[0]", fillcolor="#f2c09c"] ;
844 -> 845 ;
846 [label="gini = 0.0\nsamples = 1\nvalue = [1, 0]\nclass = y[0]", fillcolor="#e58139"] ;
845 -> 846 ;
847 [label="gini = 0.5\nsamples = 2\nvalue = [1, 1]\nclass = y[0]", fillcolor="#ffffff"] ;
845 -> 847 ;
848 [label="gini = 0.0\nsamples = 3\nvalue = [3, 0]\nclass = y[0]", fillcolor="#e58139"] ;
844 -> 848 ;
849 [label="Income <= 148.5\ngini = 0.5\nsamples = 2\nvalue = [1, 1]\nclass = y[0]", fillcolor="#ffffff"] ;
841 -> 849 ;
850 [label="gini = 0.0\nsamples = 1\nvalue = [1, 0]\nclass = y[0]", fillcolor="#e58139"] ;
849 -> 850 ;
851 [label="gini = 0.0\nsamples = 1\nvalue = [0, 1]\nclass = y[1]", fillcolor="#399de5"] ;
849 -> 851 ;
852 [label="Income <= 159.5\ngini = 0.48\nsamples = 20\nvalue = [12, 8]\nclass = y[0]", fillcolor="#f6d5bd"] ;
782 -> 852 ;
853 [label="Age <= 42.5\ngini = 0.469\nsamples = 8\nvalue = [3, 5]\nclass = y[1]", fillcolor="#b0d8f5"] ;
852 -> 853 ;
854 [label="gini = 0.0\nsamples = 3\nvalue = [0, 3]\nclass = y[1]", fillcolor="#399de5"] ;
853 -> 854 ;
855 [label="Age <= 45.5\ngini = 0.48\nsamples = 5\nvalue = [3, 2]\nclass = y[0]", fillcolor="#f6d5bd"] ;
853 -> 855 ;
856 [label="gini = 0.0\nsamples = 2\nvalue = [2, 0]\nclass = y[0]", fillcolor="#e58139"] ;
855 -> 856 ;
857 [label="Income <= 158.5\ngini = 0.444\nsamples = 3\nvalue = [1, 2]\nclass = y[1]", fillcolor="#9ccef2"] ;
855 -> 857 ;
858 [label="gini = 0.5\nsamples = 2\nvalue = [1, 1]\nclass = y[0]", fillcolor="#ffffff"] ;
857 -> 858 ;
859 [label="gini = 0.0\nsamples = 1\nvalue = [0, 1]\nclass = y[1]", fillcolor="#399de5"] ;
857 -> 859 ;
860 [label="Age <= 42.0\ngini = 0.375\nsamples = 12\nvalue = [9, 3]\nclass = y[0]", fillcolor="#eeab7b"] ;
852 -> 860 ;
861 [label="gini = 0.0\nsamples = 4\nvalue = [4, 0]\nclass = y[0]", fillcolor="#e58139"] ;
860 -> 861 ;
862 [label="Income <= 161.5\ngini = 0.469\nsamples = 8\nvalue = [5, 3]\nclass = y[0]", fillcolor="#f5cdb0"] ;
860 -> 862 ;
863 [label="Age <= 43.5\ngini = 0.32\nsamples = 5\nvalue = [4, 1]\nclass = y[0]", fillcolor="#eca06a"] ;
862 -> 863 ;
864 [label="gini = 0.444\nsamples = 3\nvalue = [2, 1]\nclass = y[0]", fillcolor="#f2c09c"] ;
863 -> 864 ;
865 [label="gini = 0.0\nsamples = 2\nvalue = [2, 0]\nclass = y[0]", fillcolor="#e58139"] ;
863 -> 865 ;
866 [label="Age <= 46.0\ngini = 0.444\nsamples = 3\nvalue = [1, 2]\nclass = y[1]", fillcolor="#9ccef2"] ;
862 -> 866 ;
867 [label="gini = 0.0\nsamples = 2\nvalue = [0, 2]\nclass = y[1]", fillcolor="#399de5"] ;
866 -> 867 ;
868 [label="gini = 0.0\nsamples = 1\nvalue = [1, 0]\nclass = y[0]", fillcolor="#e58139"] ;
866 -> 868 ;
869 [label="Income <= 150.5\ngini = 0.479\nsamples = 133\nvalue = [80, 53]\nclass = y[0]", fillcolor="#f6d4bc"] ;
781 -> 869 ;
870 [label="Income <= 149.5\ngini = 0.434\nsamples = 69\nvalue = [47, 22]\nclass = y[0]", fillcolor="#f1bc96"] ;
869 -> 870 ;
871 [label="Age <= 49.5\ngini = 0.448\nsamples = 65\nvalue = [43, 22]\nclass = y[0]", fillcolor="#f2c19e"] ;
870 -> 871 ;
872 [label="Income <= 144.5\ngini = 0.5\nsamples = 8\nvalue = [4, 4]\nclass = y[0]", fillcolor="#ffffff"] ;
871 -> 872 ;
873 [label="Income <= 139.5\ngini = 0.375\nsamples = 4\nvalue = [1, 3]\nclass = y[1]", fillcolor="#7bbeee"] ;
872 -> 873 ;
874 [label="Income <= 138.5\ngini = 0.5\nsamples = 2\nvalue = [1, 1]\nclass = y[0]", fillcolor="#ffffff"] ;
873 -> 874 ;
875 [label="gini = 0.0\nsamples = 1\nvalue = [0, 1]\nclass = y[1]", fillcolor="#399de5"] ;
874 -> 875 ;
876 [label="gini = 0.0\nsamples = 1\nvalue = [1, 0]\nclass = y[0]", fillcolor="#e58139"] ;
874 -> 876 ;
877 [label="gini = 0.0\nsamples = 2\nvalue = [0, 2]\nclass = y[1]", fillcolor="#399de5"] ;
873 -> 877 ;
878 [label="Income <= 148.5\ngini = 0.375\nsamples = 4\nvalue = [3, 1]\nclass = y[0]", fillcolor="#eeab7b"] ;
872 -> 878 ;
879 [label="gini = 0.0\nsamples = 2\nvalue = [2, 0]\nclass = y[0]", fillcolor="#e58139"] ;
878 -> 879 ;
880 [label="Age <= 48.5\ngini = 0.5\nsamples = 2\nvalue = [1, 1]\nclass = y[0]", fillcolor="#ffffff"] ;
878 -> 880 ;
881 [label="gini = 0.0\nsamples = 1\nvalue = [0, 1]\nclass = y[1]", fillcolor="#399de5"] ;
880 -> 881 ;
882 [label="gini = 0.0\nsamples = 1\nvalue = [1, 0]\nclass = y[0]", fillcolor="#e58139"] ;
880 -> 882 ;
883 [label="Age <= 52.5\ngini = 0.432\nsamples = 57\nvalue = [39, 18]\nclass = y[0]", fillcolor="#f1bb94"] ;
871 -> 883 ;
884 [label="gini = 0.0\nsamples = 8\nvalue = [8, 0]\nclass = y[0]", fillcolor="#e58139"] ;
883 -> 884 ;
885 [label="Income <= 142.5\ngini = 0.465\nsamples = 49\nvalue = [31, 18]\nclass = y[0]", fillcolor="#f4caac"] ;
883 -> 885 ;
